{"learner":{"attributes":{"best_iteration":"499","best_score":"1.19351370708401","scikit_learn":"{\"_estimator_type\": \"regressor\"}"},"feature_names":["LapNumber","TyreLife","tyre_life_squared","is_fresh_tyre","stint_progress","deg_rate"],"feature_types":["float","float","float","int","float","float"],"gradient_booster":{"model":{"cats":{"enc":[],"feature_segments":[],"sorted_idx":[]},"gbtree_model_param":{"num_parallel_tree":"1","num_trees":"500"},"iteration_indptr":[0,1,2,3,4,5,6,7,8,9,10,11,12,13,14,15,16,17,18,19,20,21,22,23,24,25,26,27,28,29,30,31,32,33,34,35,36,37,38,39,40,41,42,43,44,45,46,47,48,49,50,51,52,53,54,55,56,57,58,59,60,61,62,63,64,65,66,67,68,69,70,71,72,73,74,75,76,77,78,79,80,81,82,83,84,85,86,87,88,89,90,91,92,93,94,95,96,97,98,99,100,101,102,103,104,105,106,107,108,109,110,111,112,113,114,115,116,117,118,119,120,121,122,123,124,125,126,127,128,129,130,131,132,133,134,135,136,137,138,139,140,141,142,143,144,145,146,147,148,149,150,151,152,153,154,155,156,157,158,159,160,161,162,163,164,165,166,167,168,169,170,171,172,173,174,175,176,177,178,179,180,181,182,183,184,185,186,187,188,189,190,191,192,193,194,195,196,197,198,199,200,201,202,203,204,205,206,207,208,209,210,211,212,213,214,215,216,217,218,219,220,221,222,223,224,225,226,227,228,229,230,231,232,233,234,235,236,237,238,239,240,241,242,243,244,245,246,247,248,249,250,251,252,253,254,255,256,257,258,259,260,261,262,263,264,265,266,267,268,269,270,271,272,273,274,275,276,277,278,279,280,281,282,283,284,285,286,287,288,289,290,291,292,293,294,295,296,297,298,299,300,301,302,303,304,305,306,307,308,309,310,311,312,313,314,315,316,317,318,319,320,321,322,323,324,325,326,327,328,329,330,331,332,333,334,335,336,337,338,339,340,341,342,343,344,345,346,347,348,349,350,351,352,353,354,355,356,357,358,359,360,361,362,363,364,365,366,367,368,369,370,371,372,373,374,375,376,377,378,379,380,381,382,383,384,385,386,387,388,389,390,391,392,393,394,395,396,397,398,399,400,401,402,403,404,405,406,407,408,409,410,411,412,413,414,415,416,417,418,419,420,421,422,423,424,425,426,427,428,429,430,431,432,433,434,435,436,437,438,439,440,441,442,443,444,445,446,447,448,449,450,451,452,453,454,455,456,457,458,459,460,461,462,463,464,465,466,467,468,469,470,471,472,473,474,475,476,477,478,479,480,481,482,483,484,485,486,487,488,489,490,491,492,493,494,495,496,497,498,499,500],"tree_info":[0,0,0,0,0,0,0,0,0,0,0,0,0,0,0,0,0,0,0,0,0,0,0,0,0,0,0,0,0,0,0,0,0,0,0,0,0,0,0,0,0,0,0,0,0,0,0,0,0,0,0,0,0,0,0,0,0,0,0,0,0,0,0,0,0,0,0,0,0,0,0,0,0,0,0,0,0,0,0,0,0,0,0,0,0,0,0,0,0,0,0,0,0,0,0,0,0,0,0,0,0,0,0,0,0,0,0,0,0,0,0,0,0,0,0,0,0,0,0,0,0,0,0,0,0,0,0,0,0,0,0,0,0,0,0,0,0,0,0,0,0,0,0,0,0,0,0,0,0,0,0,0,0,0,0,0,0,0,0,0,0,0,0,0,0,0,0,0,0,0,0,0,0,0,0,0,0,0,0,0,0,0,0,0,0,0,0,0,0,0,0,0,0,0,0,0,0,0,0,0,0,0,0,0,0,0,0,0,0,0,0,0,0,0,0,0,0,0,0,0,0,0,0,0,0,0,0,0,0,0,0,0,0,0,0,0,0,0,0,0,0,0,0,0,0,0,0,0,0,0,0,0,0,0,0,0,0,0,0,0,0,0,0,0,0,0,0,0,0,0,0,0,0,0,0,0,0,0,0,0,0,0,0,0,0,0,0,0,0,0,0,0,0,0,0,0,0,0,0,0,0,0,0,0,0,0,0,0,0,0,0,0,0,0,0,0,0,0,0,0,0,0,0,0,0,0,0,0,0,0,0,0,0,0,0,0,0,0,0,0,0,0,0,0,0,0,0,0,0,0,0,0,0,0,0,0,0,0,0,0,0,0,0,0,0,0,0,0,0,0,0,0,0,0,0,0,0,0,0,0,0,0,0,0,0,0,0,0,0,0,0,0,0,0,0,0,0,0,0,0,0,0,0,0,0,0,0,0,0,0,0,0,0,0,0,0,0,0,0,0,0,0,0,0,0,0,0,0,0,0,0,0,0,0,0,0,0,0,0,0,0,0,0,0,0,0,0,0,0,0,0,0,0,0,0,0,0,0,0,0,0,0,0,0,0,0,0,0,0,0,0,0,0,0,0,0,0,0,0,0,0,0,0,0,0,0,0,0,0,0,0,0,0,0,0,0,0,0,0,0],"trees":[{"base_weights":[1.385874E-1,2.207451E0,-6.5880103E0,4.4877415E0,1.4553984E0,-3.5433834E0,-8.557074E0,7.8797035E-2,5.9054523E0,-4.024261E0,2.5734594E0,-1.8934689E0,-1.0905144E1,-9.288333E0,2.024385E0,-2.2263305E-1,1.5870942E0,6.3744507E0,4.3895535E0,-1.9393648E0,-5.369258E-1,2.8230407E0,-8.301731E0,-4.616905E0,3.4217966E0,-5.9144545E-1,9.687748E-2,-9.684527E0,-4.4863286E0,-1.460324E0,4.590912E0,3.6981292E0,-2.578457E-1,3.2644013E-1,3.9683084E0,-2.495662E-1,2.838941E-1,-3.9024389E0,2.0776246E-1,4.0784345E0,1.4435096E0,-4.986735E-1,-5.192693E-1,-5.3991914E0,3.0601618E-1,-2.676543E-1,5.65941E0,-7.3806753E0,-5.3194404E-1,1.9806416E-1,-2.721507E-1,-1.4201355E-1,2.0319875E-2,9.420624E-1,3.0899104E-1,2.863479E-1,6.301161E-2,7.129116E-2,2.500957E-1,-1.5913111E-3,-5.3602874E-1,1.7127289E-1,2.3705183E-1,-4.9336335E-1,1.4215705E-1,1.04727365E-1,-1.4367257E-1,-1.2041057E-2,-3.3578378E-1,4.9279023E-2,3.4880453E-1,-4.1540962E-1,2.940384E-2,-1.557726E-1,1.706274E-1,-1.4476776E-3,7.210236E-2],"categories":[],"categories_nodes":[],"categories_segments":[],"categories_sizes":[],"default_left":[0,0,0,0,0,0,0,0,0,0,0,0,0,0,0,0,0,0,0,0,0,0,0,0,0,0,0,0,0,0,0,0,0,0,0,0,0,0,0,0,0,0,0,0,0,0,0,0,0,0,0,0,0,0,0,0,0,0,0,0,0,0,0,0,0,0,0,0,0,0,0,0,0,0,0,0,0],"id":0,"left_children":[1,3,5,7,9,11,13,15,17,19,21,23,25,27,29,-1,31,33,35,37,-1,39,41,43,45,-1,-1,47,49,51,53,55,-1,-1,57,-1,-1,59,-1,61,63,-1,65,67,-1,-1,69,71,-1,73,-1,-1,-1,75,-1,-1,-1,-1,-1,-1,-1,-1,-1,-1,-1,-1,-1,-1,-1,-1,-1,-1,-1,-1,-1,-1,-1],"loss_changes":[1.3903123E4,1.3036514E3,1.3785176E3,1.1808999E3,3.5392744E3,1.1211013E3,1.1175703E3,3.283017E2,7.368506E1,1.3510294E3,1.3235593E3,1.1449097E3,2.2460095E2,2.0958789E2,9.614021E1,0E0,5.3159705E2,1.3830566E1,4.755091E2,9.254933E2,0E0,8.063523E2,1.3793378E2,4.69823E2,5.604348E2,0E0,0E0,1.8971777E2,5.485594E1,1.4034165E1,2.896437E1,1.3127286E2,0E0,0E0,1.65195E1,0E0,0E0,1.5303E3,0E0,8.976294E1,3.5900103E3,0E0,2.4478779E1,3.3113745E2,0E0,0E0,1.2851111E2,2.9314087E2,0E0,4.258536E1,0E0,0E0,0E0,1.4982319E0,0E0,0E0,0E0,0E0,0E0,0E0,0E0,0E0,0E0,0E0,0E0,0E0,0E0,0E0,0E0,0E0,0E0,0E0,0E0,0E0,0E0,0E0,0E0],"parents":[2147483647,0,0,1,1,2,2,3,3,4,4,5,5,6,6,7,7,8,8,9,9,10,10,11,11,12,12,13,13,14,14,16,16,17,17,18,18,19,19,21,21,22,22,23,23,24,24,27,27,28,28,29,29,30,30,31,31,34,34,37,37,39,39,40,40,42,42,43,43,46,46,47,47,49,49,53,53],"right_children":[2,4,6,8,10,12,14,16,18,20,22,24,26,28,30,-1,32,34,36,38,-1,40,42,44,46,-1,-1,48,50,52,54,56,-1,-1,58,-1,-1,60,-1,62,64,-1,66,68,-1,-1,70,72,-1,74,-1,-1,-1,76,-1,-1,-1,-1,-1,-1,-1,-1,-1,-1,-1,-1,-1,-1,-1,-1,-1,-1,-1,-1,-1,-1,-1],"split_conditions":[-8.4208144E-4,-8.7657146E-2,1E1,-1.9082858E-1,-6.985072E-2,5.688211E-1,5.2E1,-5.443E-1,-9.3828574E-2,-7.738029E-2,3.6E1,4.7619048E-1,5.2E1,9.4736844E-1,1E0,-2.2263305E-1,-2.028E-1,9.411765E-1,-8.816618E-2,-7.75099E-2,-5.369258E-1,-4.0699307E-2,1E0,2.6E1,1.445E-2,-5.9144545E-1,9.687748E-2,1.5E1,1.6E1,5.3E1,1.25E-2,5E0,-2.578457E-1,3.2644013E-1,8E0,-2.495662E-1,2.838941E-1,-7.947653E-2,2.0776246E-1,-5.355306E-2,-3.907537E-2,-4.986735E-1,3.7E1,4E0,3.0601618E-1,-2.676543E-1,5.3125E-1,8.518519E-1,-5.3194404E-1,1.4E1,-2.721507E-1,-1.4201355E-1,2.0319875E-2,4.5E-3,3.0899104E-1,2.863479E-1,6.301161E-2,7.129116E-2,2.500957E-1,-1.5913111E-3,-5.3602874E-1,1.7127289E-1,2.3705183E-1,-4.9336335E-1,1.4215705E-1,1.04727365E-1,-1.4367257E-1,-1.2041057E-2,-3.3578378E-1,4.9279023E-2,3.4880453E-1,-4.1540962E-1,2.940384E-2,-1.557726E-1,1.706274E-1,-1.4476776E-3,7.210236E-2],"split_indices":[5,5,1,5,5,5,0,5,5,5,1,4,0,4,4,0,5,4,5,5,0,5,4,0,5,0,0,1,0,0,5,0,0,0,0,0,0,5,0,5,5,0,0,0,0,0,4,4,0,0,0,0,0,5,0,0,0,0,0,0,0,0,0,0,0,0,0,0,0,0,0,0,0,0,0,0,0],"split_type":[0,0,0,0,0,0,0,0,0,0,0,0,0,0,0,0,0,0,0,0,0,0,0,0,0,0,0,0,0,0,0,0,0,0,0,0,0,0,0,0,0,0,0,0,0,0,0,0,0,0,0,0,0,0,0,0,0,0,0,0,0,0,0,0,0,0,0,0,0,0,0,0,0,0,0,0,0],"sum_hessian":[9.97E2,7.63E2,2.34E2,1.88E2,5.75E2,9.3E1,1.41E2,4.6E1,1.42E2,9.7E1,4.78E2,7.7E1,1.6E1,1.32E2,9E0,1.1E1,3.5E1,1.06E2,3.6E1,7.5E1,2.2E1,4.68E2,1E1,5.1E1,2.6E1,1.5E1,1E0,1.21E2,1.1E1,4E0,5E0,2.7E1,8E0,9.8E1,8E0,4E0,3.2E1,5.7E1,1.8E1,2.44E2,2.24E2,8E0,2E0,4.8E1,3E0,5E0,2.1E1,3.8E1,8.3E1,2E0,9E0,2E0,2E0,2E0,3E0,1.4E1,1.3E1,3E0,5E0,3.7E1,2E1,1.26E2,1.18E2,2.4E1,2E2,1E0,1E0,1E1,3.8E1,5E0,1.6E1,3.4E1,4E0,1E0,1E0,1E0,1E0],"tree_param":{"num_deleted":"0","num_feature":"6","num_nodes":"77","size_leaf_vector":"1"}},{"base_weights":[-8.5643165E-2,1.8537966E0,-6.474509E0,2.0906165E0,-6.5908384E0,-3.8092597E0,-8.409736E0,3.8863466E0,1.503271E0,1.797514E-1,-4.9944863E-1,-2.3286524E0,-1.0342623E1,-9.4198475E0,-1.4329199E0,-2.2776261E-1,4.6169276E0,-3.7258773E0,2.5796041E0,1.6060285E-1,-2.2820435E0,-4.251462E-1,-3.316034E-1,-5.652921E-1,1.5080261E-1,-8.491814E0,-5.3989315E-1,-2.8390365E0,4.198248E0,-8.713262E-1,5.2003713E0,-1.4256635E0,-5.100729E-1,3.6144192E0,1.3595197E0,-1.936823E-1,1.0210915E-1,-4.3150334E0,1.9110917E0,-4.842603E-1,-3.920723E0,-4.027187E0,3.2559612E0,1.6594505E-2,2.688202E-1,1.3423912E-1,-2.6037732E-1,9.1046035E-2,3.025566E-1,-1.619404E-1,2.0968519E-1,1.3998722E-1,2.2691981E-1,-4.6988425E-1,1.3485448E-1,-1.1372151E-1,-3.6182955E-1,2.9641402E-1,2.2191673E-3,2.1700287E-2,-2.2651437E-1,-6.2309932E-2,-2.3684318E-1,1.2869454E-2,2.3132764E-1],"categories":[],"categories_nodes":[],"categories_segments":[],"categories_sizes":[],"default_left":[0,0,0,0,0,0,0,0,0,0,0,0,0,0,0,0,0,0,0,0,0,0,0,0,0,0,0,0,0,0,0,0,0,0,0,0,0,0,0,0,0,0,0,0,0,0,0,0,0,0,0,0,0,0,0,0,0,0,0,0,0,0,0,0,0],"id":1,"left_children":[1,3,5,7,9,11,13,15,17,19,-1,21,23,25,27,-1,29,31,33,-1,35,-1,37,-1,-1,39,-1,41,43,45,47,49,-1,51,53,-1,-1,55,57,-1,59,61,63,-1,-1,-1,-1,-1,-1,-1,-1,-1,-1,-1,-1,-1,-1,-1,-1,-1,-1,-1,-1,-1,-1],"loss_changes":[1.2291306E4,1.5356707E3,1.1594307E3,7.757009E2,4.8495056E2,9.335769E2,9.2380273E2,1.1434749E3,3.1614626E3,6.704937E1,0E0,1.00826685E3,2.6571094E2,5.665332E1,1.5444441E2,0E0,5.424817E2,1.4153972E3,5.821775E2,0E0,4.2322937E1,0E0,5.7106445E2,0E0,0E0,3.657046E2,0E0,1.2173898E2,1.643631E1,2.761223E2,4.2599658E2,7.4717065E2,0E0,1.7623193E2,3.1188765E3,0E0,0E0,1.2066089E2,3.0719257E2,0E0,4.70925E1,1.9753769E1,1.113863E1,0E0,0E0,0E0,0E0,0E0,0E0,0E0,0E0,0E0,0E0,0E0,0E0,0E0,0E0,0E0,0E0,0E0,0E0,0E0,0E0,0E0,0E0],"parents":[2147483647,0,0,1,1,2,2,3,3,4,4,5,5,6,6,7,7,8,8,9,9,11,11,12,12,13,13,14,14,16,16,17,17,18,18,20,20,22,22,25,25,27,27,28,28,29,29,30,30,31,31,33,33,34,34,37,37,38,38,40,40,41,41,42,42],"right_children":[2,4,6,8,10,12,14,16,18,20,-1,22,24,26,28,-1,30,32,34,-1,36,-1,38,-1,-1,40,-1,42,44,46,48,50,-1,52,54,-1,-1,56,58,-1,60,62,64,-1,-1,-1,-1,-1,-1,-1,-1,-1,-1,-1,-1,-1,-1,-1,-1,-1,-1,-1,-1,-1,-1],"split_conditions":[-8.4208144E-4,3.4E1,1.1E1,-8.7657146E-2,-4.0699307E-2,5.688211E-1,9.4736844E-1,-5.443E-1,-6.985072E-2,-6.440205E-2,-4.9944863E-1,1.9354838E-1,1E1,6.596429E-2,1.65E-1,-2.2776261E-1,1E0,-7.738029E-2,-4.0699307E-2,1.6060285E-1,-5.355306E-2,-4.251462E-1,2.5527472E-2,-5.652921E-1,1.5080261E-1,1.9983625E-2,-5.3989315E-1,5.3E1,9.583333E-1,-1.4613333E-1,-1.9082858E-1,-7.75099E-2,-5.100729E-1,-5.355306E-2,-3.907537E-2,-1.936823E-1,1.0210915E-1,1.9904412E-2,4.5185715E-2,-4.842603E-1,1.2E1,1.6E1,5.4E1,1.6594505E-2,2.688202E-1,1.3423912E-1,-2.6037732E-1,9.1046035E-2,3.025566E-1,-1.619404E-1,2.0968519E-1,1.3998722E-1,2.2691981E-1,-4.6988425E-1,1.3485448E-1,-1.1372151E-1,-3.6182955E-1,2.9641402E-1,2.2191673E-3,2.1700287E-2,-2.2651437E-1,-6.2309932E-2,-2.3684318E-1,1.2869454E-2,2.3132764E-1],"split_indices":[5,1,1,5,5,5,4,5,5,5,0,4,1,5,5,0,3,5,5,0,5,0,5,0,0,5,0,1,4,5,5,5,0,5,5,0,0,5,5,0,1,1,1,0,0,0,0,0,0,0,0,0,0,0,0,0,0,0,0,0,0,0,0,0,0],"split_type":[0,0,0,0,0,0,0,0,0,0,0,0,0,0,0,0,0,0,0,0,0,0,0,0,0,0,0,0,0,0,0,0,0,0,0,0,0,0,0,0,0,0,0,0,0,0,0,0,0,0,0,0,0,0,0,0,0,0,0,0,0,0,0,0,0],"sum_hessian":[9.9E2,7.6E2,2.3E2,7.4E2,2E1,9.8E1,1.32E2,1.81E2,5.59E2,7E0,1.3E1,8.1E1,1.7E1,1.15E2,1.7E1,1.4E1,1.67E2,9.5E1,4.64E2,3E0,4E0,1.9E1,6.2E1,1.6E1,1E0,7.3E1,4.2E1,1.4E1,3E0,1.6E1,1.51E2,7.1E1,2.4E1,2.5E2,2.14E2,3E0,1E0,2.2E1,4E1,5.7E1,1.6E1,1.2E1,2E0,1E0,2E0,9E0,7E0,3.1E1,1.2E2,5.4E1,1.7E1,1.35E2,1.15E2,2.3E1,1.91E2,1.4E1,8E0,1.2E1,2.8E1,2E0,1.4E1,3E0,9E0,1E0,1E0],"tree_param":{"num_deleted":"0","num_feature":"6","num_nodes":"65","size_leaf_vector":"1"}},{"base_weights":[8.83605E-3,2.0080884E0,-5.9016867E0,2.1690238E0,-3.9342701E0,-6.2532554E0,4.2854767E0,-2.1997105E-1,2.3232412E0,1.2738398E0,-4.634882E-1,-4.0470614E0,-8.355644E0,4.5097354E-3,4.7986126E0,4.5912547E0,1.6710362E0,1.8078613E-1,-1.864193E-1,-3.1381962E0,-5.384617E-1,7.7732086E-2,-8.872732E0,1.6151403E0,5.59058E0,3.2822222E-1,3.5613465E0,-3.212883E0,2.7300186E0,-4.0676537E0,6.377253E0,-9.329372E0,-4.0616317E0,1.0858784E-1,1.2547684E-2,7.622089E-2,3.0494645E-1,7.623126E-2,2.711111E-1,-7.37255E-2,-4.7997412E-1,1.8082431E-1,8.058805E-2,-2.985409E-1,-8.255861E-2,9.821116E-2,3.6174914E-1,-4.2462403E-1,-5.1887393E-1,-5.9973337E-2,-2.4412063E-1],"categories":[],"categories_nodes":[],"categories_segments":[],"categories_sizes":[],"default_left":[0,0,0,0,0,0,0,0,0,0,0,0,0,0,0,0,0,0,0,0,0,0,0,0,0,0,0,0,0,0,0,0,0,0,0,0,0,0,0,0,0,0,0,0,0,0,0,0,0,0,0],"id":2,"left_children":[1,3,5,7,9,11,13,-1,15,17,-1,19,21,-1,23,25,27,-1,-1,29,-1,-1,31,33,35,-1,37,39,41,43,45,47,49,-1,-1,-1,-1,-1,-1,-1,-1,-1,-1,-1,-1,-1,-1,-1,-1,-1,-1],"loss_changes":[1.1781211E4,7.210034E2,9.29334E2,7.4563745E2,5.6756506E2,1.0979238E3,1.8941925E1,0E0,1.0425671E3,1.4234169E2,0E0,7.054596E2,6.4923047E2,0E0,1.1140091E1,2.9770972E2,2.8688784E3,0E0,0E0,9.8111475E2,0E0,0E0,2.2134668E2,1.732976E0,3.1048584E0,0E0,3.9348206E2,1.0849723E3,4.452124E2,4.45438E2,2.3640747E1,5.7246094E0,2.2334244E1,0E0,0E0,0E0,0E0,0E0,0E0,0E0,0E0,0E0,0E0,0E0,0E0,0E0,0E0,0E0,0E0,0E0,0E0],"parents":[2147483647,0,0,1,1,2,2,3,3,4,4,5,5,6,6,8,8,9,9,11,11,12,12,14,14,15,15,16,16,19,19,22,22,23,23,24,24,26,26,27,27,28,28,29,29,30,30,31,31,32,32],"right_children":[2,4,6,8,10,12,14,-1,16,18,-1,20,22,-1,24,26,28,-1,-1,30,-1,-1,32,34,36,-1,38,40,42,44,46,48,50,-1,-1,-1,-1,-1,-1,-1,-1,-1,-1,-1,-1,-1,-1,-1,-1,-1,-1],"split_conditions":[-4.392857E-3,3.4E1,5.2E1,-5.443E-1,-4.0699307E-2,1.2E1,4.5E-3,-2.1997105E-1,-8.7657146E-2,4.1E1,-4.634882E-1,5.688211E-1,-8.4208144E-4,4.5097354E-3,1E0,4.516129E-1,-6.985072E-2,1.8078613E-1,-1.864193E-1,2.9E1,-5.384617E-1,7.7732086E-2,9.4736844E-1,1E1,1.25E-2,3.2822222E-1,8E0,-7.738029E-2,-4.0699307E-2,2.5527472E-2,2.3539285E-1,6.596429E-2,1.6E1,1.0858784E-1,1.2547684E-2,7.622089E-2,3.0494645E-1,7.623126E-2,2.711111E-1,-7.37255E-2,-4.7997412E-1,1.8082431E-1,8.058805E-2,-2.985409E-1,-8.255861E-2,9.821116E-2,3.6174914E-1,-4.2462403E-1,-5.1887393E-1,-5.9973337E-2,-2.4412063E-1],"split_indices":[5,1,0,5,5,1,5,0,5,0,0,5,5,0,4,4,5,0,0,0,0,0,4,1,5,0,0,5,5,5,5,5,0,0,0,0,0,0,0,0,0,0,0,0,0,0,0,0,0,0,0],"split_type":[0,0,0,0,0,0,0,0,0,0,0,0,0,0,0,0,0,0,0,0,0,0,0,0,0,0,0,0,0,0,0,0,0,0,0,0,0,0,0,0,0,0,0,0,0,0,0,0,0,0,0],"sum_hessian":[9.95E2,7.44E2,2.51E2,7.25E2,1.9E1,2.43E2,8E0,1.6E1,7.09E2,1E1,9E0,1.2E2,1.23E2,1E0,7E0,1.57E2,5.52E2,7E0,3E0,1.07E2,1.3E1,6E0,1.17E2,2E0,5E0,5.2E1,1.05E2,9.8E1,4.54E2,9.8E1,9E0,1.06E2,1.1E1,1E0,1E0,1E0,4E0,5.1E1,5.4E1,7.8E1,2E1,2.52E2,2.02E2,5.4E1,4.4E1,2E0,7E0,6.4E1,4.2E1,3E0,8E0],"tree_param":{"num_deleted":"0","num_feature":"6","num_nodes":"51","size_leaf_vector":"1"}},{"base_weights":[1.38694E-2,4.5569018E-1,-7.040521E0,2.164812E0,2.4328925E-1,-9.406493E0,-9.406614E-2,2.304074E0,-1.8927555E0,-3.0946636E-1,9.313663E-1,-4.9841905E0,-4.9228272E-1,-2.1689944E0,2.2519865E0,4.5456186E-1,2.525075E0,-1.71698E-1,6.827145E-2,4.448591E-1,-8.57977E0,3.9277294E-1,1.4290676E0,-3.6943588E-1,-1.1675771E-1,8.902912E-1,-3.8470192E0,1.3284378E0,2.1792069E-1,2.3612084E0,-3.0262235E-1,4.4717507E0,2.043743E0,-4.8806185E-1,1.5008845E0,-4.109648E0,-4.486611E-1,-4.2892036E0,9.042535E-1,1.2723905E0,2.5386057E0,1.160202E-1,-1.24777034E-1,1.2835401E-1,-1.0350189E-1,-2.3571472E-1,1.2233925E-2,6.0593987E-1,8.5941315E-2,2.0720597E-1,-1.2526321E-2,1.672776E-1,2.801335E-1,7.160258E-2,1.7122327E-1,2.8398296E-2,-3.7383887E-1,8.272175E-2,-2.4245887E-1,-3.1364068E-1,1.1357536E-1,-4.0648557E-2,-3.2137224E-1,1.2628095E-2,6.2452793E-2,7.0009224E-2,-7.612028E-2,7.084593E-2,1.6462241E-1,9.613571E-2,-2.3694484E-2],"categories":[],"categories_nodes":[],"categories_segments":[],"categories_sizes":[],"default_left":[0,0,0,0,0,0,0,0,0,0,0,0,0,0,0,0,0,0,0,0,0,0,0,0,0,0,0,0,0,0,0,0,0,0,0,0,0,0,0,0,0,0,0,0,0,0,0,0,0,0,0,0,0,0,0,0,0,0,0,0,0,0,0,0,0,0,0,0,0,0,0],"id":3,"left_children":[1,3,5,7,9,11,13,15,17,19,21,23,-1,25,27,29,31,-1,-1,33,35,37,39,-1,41,43,45,47,-1,49,-1,51,53,55,57,59,-1,61,63,65,67,-1,-1,-1,-1,-1,-1,69,-1,-1,-1,-1,-1,-1,-1,-1,-1,-1,-1,-1,-1,-1,-1,-1,-1,-1,-1,-1,-1,-1,-1],"loss_changes":[3.1199846E3,3.4143732E2,9.6878735E2,6.3127747E1,3.1939218E2,3.6380127E1,8.2770805E1,4.0135254E1,2.477494E1,2.9109578E3,9.969266E1,6.936055E1,0E0,4.9626987E1,9.773224E0,1.6316988E2,7.519061E1,0E0,0E0,4.2239307E2,3.1715576E1,4.3732642E2,3.049469E1,0E0,2.3183098E1,2.5169344E1,2.244526E1,9.3287945E-1,0E0,4.7603123E1,0E0,2.9078674E0,5.7594635E1,1.6869501E3,2.040086E2,8.326623E1,0E0,1.2856915E2,3.6536118E1,6.3562775E1,1.4783112E1,0E0,0E0,0E0,0E0,0E0,0E0,6.5987215E0,0E0,0E0,0E0,0E0,0E0,0E0,0E0,0E0,0E0,0E0,0E0,0E0,0E0,0E0,0E0,0E0,0E0,0E0,0E0,0E0,0E0,0E0,0E0],"parents":[2147483647,0,0,1,1,2,2,3,3,4,4,5,5,6,6,7,7,8,8,9,9,10,10,11,11,13,13,14,14,15,15,16,16,19,19,20,20,21,21,22,22,24,24,25,25,26,26,27,27,29,29,31,31,32,32,33,33,34,34,35,35,37,37,38,38,39,39,40,40,47,47],"right_children":[2,4,6,8,10,12,14,16,18,20,22,24,-1,26,28,30,32,-1,-1,34,36,38,40,-1,42,44,46,48,-1,50,-1,52,54,56,58,60,-1,62,64,66,68,-1,-1,-1,-1,-1,-1,70,-1,-1,-1,-1,-1,-1,-1,-1,-1,-1,-1,-1,-1,-1,-1,-1,-1,-1,-1,-1,-1,-1,-1],"split_conditions":[3.4E1,4E0,9.4736844E-1,5.16129E-1,6.4E-1,3.5E1,1E0,7.1428575E-2,6.7741936E-1,2.2E1,1.9E1,6.944444E-1,-4.9228272E-1,3.9E1,5.3E1,3E0,9.615385E-2,-1.71698E-1,6.827145E-2,4.0625E-1,2.3E1,1E0,9.6875E-1,-3.6943588E-1,8.518519E-1,9.722222E-1,5.3E1,3.7E1,2.1792069E-1,6.451613E-2,-3.0262235E-1,9.375E-2,2.9032257E-1,1.3E1,6.315789E-1,6.1290324E-1,-4.486611E-1,7E0,8E0,9.62963E-1,3.1E1,1.160202E-1,-1.24777034E-1,1.2835401E-1,-1.0350189E-1,-2.3571472E-1,1.2233925E-2,3.6E1,8.5941315E-2,2.0720597E-1,-1.2526321E-2,1.672776E-1,2.801335E-1,7.160258E-2,1.7122327E-1,2.8398296E-2,-3.7383887E-1,8.272175E-2,-2.4245887E-1,-3.1364068E-1,1.1357536E-1,-4.0648557E-2,-3.2137224E-1,1.2628095E-2,6.2452793E-2,7.0009224E-2,-7.612028E-2,7.084593E-2,1.6462241E-1,9.613571E-2,-2.3694484E-2],"split_indices":[1,1,4,4,4,1,4,4,4,1,1,4,0,1,1,1,4,0,0,4,1,3,4,0,4,4,1,1,0,4,0,4,4,1,4,4,0,1,1,4,1,0,0,0,0,0,0,1,0,0,0,0,0,0,0,0,0,0,0,0,0,0,0,0,0,0,0,0,0,0,0],"split_type":[0,0,0,0,0,0,0,0,0,0,0,0,0,0,0,0,0,0,0,0,0,0,0,0,0,0,0,0,0,0,0,0,0,0,0,0,0,0,0,0,0,0,0,0,0,0,0,0,0,0,0,0,0,0,0,0,0,0,0,0,0,0,0,0,0,0,0,0,0,0,0],"sum_hessian":[9.99E2,9.41E2,5.8E1,1.03E2,8.38E2,4.3E1,1.5E1,1E2,3E0,4.65E2,3.73E2,5E0,3.8E1,8E0,7E0,1.1E1,8.9E1,2E0,1E0,4.27E2,3.8E1,1.8E2,1.93E2,3E0,2E0,3E0,5E0,6E0,1E0,9E0,2E0,1.6E1,7.3E1,2.27E2,2E2,4E0,3.4E1,1.7E1,1.63E2,1.71E2,2.2E1,1E0,1E0,2E0,1E0,4E0,1E0,3E0,3E0,5E0,4E0,1E1,6E0,5.2E1,2.1E1,1.98E2,2.9E1,1.96E2,4E0,3E0,1E0,7E0,1E1,5.7E1,1.06E2,1.64E2,7E0,1E1,1.2E1,1E0,2E0],"tree_param":{"num_deleted":"0","num_feature":"6","num_nodes":"71","size_leaf_vector":"1"}},{"base_weights":[4.379223E-2,1.737356E0,-5.5547733E0,1.8894011E0,-5.4223228E0,-2.9113348E0,-7.5100837E0,3.5183964E0,1.3766421E0,1.5857567E-1,-4.2756137E-1,-4.6137376E0,2.04594E0,-8.386748E0,-1.5406486E0,-2.0811665E-1,4.2552686E0,-2.7959824E0,2.256371E0,-3.4693568E0,-5.1186293E-1,-2.2661522E-1,3.447998E0,-7.690518E0,-4.6985888E-1,-2.1312108E0,2.1247272E-1,-1.1341743E0,4.894956E0,-1.280786E0,-4.5541736E-1,3.184557E0,1.0908941E0,-6.869871E0,-1.4771327E0,4.926075E0,-2.5626786E0,-4.2134356E-1,-4.2814918E0,-2.97718E0,2.8090389E0,1.24622E-1,-2.5188634E-1,9.104567E-2,2.7914536E-1,-1.4773433E-1,1.986172E-1,1.18100606E-1,2.06966E-1,-4.4210228E-1,1.2136433E-1,-1.840579E-1,-4.0174302E-1,2.960113E-1,-1.5871213E-1,1.1005751E-1,3.052554E-1,-3.7499607E-1,1.6143952E-1,2.3559062E-2,-2.5244585E-1,-1.9716166E-1,-1.2821349E-2,1.965622E-1,1.4115715E-2],"categories":[],"categories_nodes":[],"categories_segments":[],"categories_sizes":[],"default_left":[0,0,0,0,0,0,0,0,0,0,0,0,0,0,0,0,0,0,0,0,0,0,0,0,0,0,0,0,0,0,0,0,0,0,0,0,0,0,0,0,0,0,0,0,0,0,0,0,0,0,0,0,0,0,0,0,0,0,0,0,0,0,0,0,0],"id":4,"left_children":[1,3,5,7,9,11,13,15,17,-1,-1,19,21,23,25,-1,27,29,31,33,-1,-1,35,37,-1,39,-1,41,43,45,-1,47,49,51,53,55,57,-1,59,61,63,-1,-1,-1,-1,-1,-1,-1,-1,-1,-1,-1,-1,-1,-1,-1,-1,-1,-1,-1,-1,-1,-1,-1,-1],"loss_changes":[9.348955E3,8.343108E2,1.1617778E3,6.1493555E2,4.5734906E2,8.449278E2,6.7262744E2,1.01948145E3,2.0839695E3,0E0,0E0,4.4070667E2,2.5542749E2,7.929199E0,7.060597E1,0E0,5.640564E2,9.352168E2,5.0279858E2,4.1665118E2,0E0,0E0,2.080773E2,1.4716895E2,0E0,7.941112E1,0E0,2.6737643E2,2.9647876E2,7.2398755E2,0E0,1.9441016E2,2.795792E3,5.586316E1,5.335116E2,4.4391724E1,1.6718512E2,0E0,5.7088776E1,3.8414734E1,7.3966637E0,0E0,0E0,0E0,0E0,0E0,0E0,0E0,0E0,0E0,0E0,0E0,0E0,0E0,0E0,0E0,0E0,0E0,0E0,0E0,0E0,0E0,0E0,0E0,0E0],"parents":[2147483647,0,0,1,1,2,2,3,3,4,4,5,5,6,6,7,7,8,8,11,11,12,12,13,13,14,14,16,16,17,17,18,18,19,19,22,22,23,23,25,25,27,27,28,28,29,29,31,31,32,32,33,33,34,34,35,35,36,36,38,38,39,39,40,40],"right_children":[2,4,6,8,10,12,14,16,18,-1,-1,20,22,24,26,-1,28,30,32,34,-1,-1,36,38,-1,40,-1,42,44,46,-1,48,50,52,54,56,58,-1,60,62,64,-1,-1,-1,-1,-1,-1,-1,-1,-1,-1,-1,-1,-1,-1,-1,-1,-1,-1,-1,-1,-1,-1,-1,-1],"split_conditions":[-8.4208144E-4,1.296E3,1.21E2,-8.7657146E-2,-4.0699307E-2,5.416667E-1,9.4736844E-1,-5.443E-1,-6.985072E-2,1.5857567E-1,-4.2756137E-1,5.688211E-1,1.2594406E-2,6.596429E-2,2.916E3,-2.0811665E-1,1E0,-7.738029E-2,-4.0699307E-2,1.9354838E-1,-5.1186293E-1,-2.2661522E-1,5.688211E-1,1.9983625E-2,-4.6985888E-1,1.65E-1,2.1247272E-1,-1.4613333E-1,-1.9082858E-1,-7.75099E-2,-4.5541736E-1,-5.355306E-2,-3.907537E-2,9E0,1.6E1,6.315789E-1,6.4E1,-4.2134356E-1,1.44E2,2.704E3,4E2,1.24622E-1,-2.5188634E-1,9.104567E-2,2.7914536E-1,-1.4773433E-1,1.986172E-1,1.18100606E-1,2.06966E-1,-4.4210228E-1,1.2136433E-1,-1.840579E-1,-4.0174302E-1,2.960113E-1,-1.5871213E-1,1.1005751E-1,3.052554E-1,-3.7499607E-1,1.6143952E-1,2.3559062E-2,-2.5244585E-1,-1.9716166E-1,-1.2821349E-2,1.965622E-1,1.4115715E-2],"split_indices":[5,2,2,5,5,4,4,5,5,0,0,5,5,5,2,0,3,5,5,4,0,0,5,5,0,5,0,5,5,5,0,5,5,2,2,4,2,0,2,2,2,0,0,0,0,0,0,0,0,0,0,0,0,0,0,0,0,0,0,0,0,0,0,0,0],"split_type":[0,0,0,0,0,0,0,0,0,0,0,0,0,0,0,0,0,0,0,0,0,0,0,0,0,0,0,0,0,0,0,0,0,0,0,0,0,0,0,0,0,0,0,0,0,0,0,0,0,0,0,0,0,0,0,0,0,0,0,0,0,0,0,0,0],"sum_hessian":[9.84E2,7.56E2,2.28E2,7.41E2,1.5E1,9.8E1,1.3E2,1.76E2,5.65E2,4E0,1.1E1,7.3E1,2.5E1,1.13E2,1.7E1,1.5E1,1.61E2,9.8E1,4.67E2,6.2E1,1.1E1,4E0,2.1E1,7.2E1,4.1E1,1.6E1,1E0,1.7E1,1.44E2,8E1,1.8E1,2.59E2,2.08E2,2.2E1,4E1,1.7E1,4E0,5.8E1,1.4E1,1.4E1,2E0,9E0,8E0,2.7E1,1.17E2,6.1E1,1.9E1,1.41E2,1.18E2,2.4E1,1.84E2,7E0,1.5E1,7E0,3.3E1,6E0,1.1E1,2E0,2E0,2E0,1.2E1,1E1,4E0,1E0,1E0],"tree_param":{"num_deleted":"0","num_feature":"6","num_nodes":"65","size_leaf_vector":"1"}},{"base_weights":[-6.799093E-2,1.7278355E0,-5.152465E0,1.923079E0,-5.039209E0,-5.497114E0,2.457101E0,-1.946585E-1,2.0441012E0,1.2228813E0,-4.1288015E-1,-3.5157962E0,-6.9792733E0,9.869927E-1,2.575285E-1,4.40678E0,1.5073091E0,1.5768446E-1,-1.5231806E-1,-2.3163598E0,-4.9353033E-1,7.124638E-2,-7.4916506E0,-3.9914593E-1,1.9461595E-1,2.097811E0,5.2687488E0,-2.188743E0,2.5365667E0,-3.448516E0,5.613071E0,-6.624292E0,-4.4538313E-1,1.0007578E0,-1.1592591E0,2.1288256E-1,-2.5473824E-1,8.378458E-2,2.6843935E-1,6.8901E-2,-2.9463947E-1,1.6371101E-1,8.333879E-2,-1.314963E-1,-4.246529E-1,7.897148E-2,3.391063E-1,-3.7895614E-1,-3.0304542E-2,2.5691986E-3,7.2487645E-2,-1.139459E-1,1.7340979E-2],"categories":[],"categories_nodes":[],"categories_segments":[],"categories_sizes":[],"default_left":[0,0,0,0,0,0,0,0,0,0,0,0,0,0,0,0,0,0,0,0,0,0,0,0,0,0,0,0,0,0,0,0,0,0,0,0,0,0,0,0,0,0,0,0,0,0,0,0,0,0,0,0,0],"id":5,"left_children":[1,3,5,7,9,11,13,-1,15,17,-1,19,21,23,-1,25,27,-1,-1,29,-1,-1,31,33,-1,35,37,39,41,43,45,47,-1,49,51,-1,-1,-1,-1,-1,-1,-1,-1,-1,-1,-1,-1,-1,-1,-1,-1,-1,-1],"loss_changes":[9.1306045E3,9.860735E2,6.9801416E2,5.1405884E2,4.333294E2,7.0961865E2,4.2432716E1,0E0,8.874863E2,7.555197E1,0E0,8.0795483E2,6.22145E2,3.7798267E1,0E0,2.4768091E2,2.1967656E3,0E0,0E0,8.542506E2,0E0,0E0,1.055708E2,8.608734E0,0E0,5.9648E2,2.479126E1,1.6727638E3,2.839065E2,3.1627563E2,4.5874695E1,4.9533984E2,0E0,1.2042983E0,9.221846E0,0E0,0E0,0E0,0E0,0E0,0E0,0E0,0E0,0E0,0E0,0E0,0E0,0E0,0E0,0E0,0E0,0E0,0E0],"parents":[2147483647,0,0,1,1,2,2,3,3,4,4,5,5,6,6,8,8,9,9,11,11,12,12,13,13,15,15,16,16,19,19,22,22,23,23,25,25,26,26,27,27,28,28,29,29,30,30,31,31,33,33,34,34],"right_children":[2,4,6,8,10,12,14,-1,16,18,-1,20,22,24,-1,26,28,-1,-1,30,-1,-1,32,34,-1,36,38,40,42,44,46,48,-1,50,52,-1,-1,-1,-1,-1,-1,-1,-1,-1,-1,-1,-1,-1,-1,-1,-1,-1,-1],"split_conditions":[-4.392857E-3,1.156E3,5.2E1,-5.443E-1,-4.0699307E-2,1E2,5.4E1,-1.946585E-1,-9.3828574E-2,3.9E1,-4.1288015E-1,5.688211E-1,-8.4208144E-4,7.1221817E-1,2.575285E-1,-1.9082858E-1,-6.985072E-2,1.5768446E-1,-1.5231806E-1,2.7E1,-4.9353033E-1,7.124638E-2,6.596429E-2,1.25E-2,1.9461595E-1,-2.028E-1,1E0,-7.947653E-2,-4.0699307E-2,7.5519994E-2,2.3539285E-1,2.5527472E-2,-4.4538313E-1,4.5E-3,5.3E1,2.1288256E-1,-2.5473824E-1,8.378458E-2,2.6843935E-1,6.8901E-2,-2.9463947E-1,1.6371101E-1,8.333879E-2,-1.314963E-1,-4.246529E-1,7.897148E-2,3.391063E-1,-3.7895614E-1,-3.0304542E-2,2.5691986E-3,7.2487645E-2,-1.139459E-1,1.7340979E-2],"split_indices":[5,2,0,5,5,2,0,0,5,0,0,5,5,5,0,5,5,0,0,0,0,0,5,5,0,5,3,5,5,5,5,5,0,5,0,0,0,0,0,0,0,0,0,0,0,0,0,0,0,0,0,0,0],"split_type":[0,0,0,0,0,0,0,0,0,0,0,0,0,0,0,0,0,0,0,0,0,0,0,0,0,0,0,0,0,0,0,0,0,0,0,0,0,0,0,0,0,0,0,0,0,0,0,0,0,0,0,0,0],"sum_hessian":[9.98E2,7.38E2,2.6E2,7.18E2,2E1,2.49E2,1.1E1,1.4E1,7.04E2,7E0,1.3E1,1.08E2,1.41E2,8E0,3E0,1.29E2,5.75E2,5E0,2E0,9.2E1,1.6E1,8E0,1.33E2,6E0,2E0,3.6E1,9.3E1,1.25E2,4.5E2,8.1E1,1.1E1,8.6E1,4.7E1,2E0,4E0,2.8E1,8E0,3E0,9E1,6.4E1,6.1E1,2.42E2,2.08E2,7.1E1,1E1,3E0,8E0,7.4E1,1.2E1,1E0,1E0,2E0,2E0],"tree_param":{"num_deleted":"0","num_feature":"6","num_nodes":"53","size_leaf_vector":"1"}},{"base_weights":[-9.4389655E-3,1.6097219E0,-5.1413155E0,1.7740488E0,-3.8937066E0,-3.000777E0,-6.463993E0,3.2440374E0,1.2843926E0,1.6339874E0,-3.9231315E-1,-4.926648E0,2.6611347E0,-7.214514E0,-1.1071424E0,-1.8217547E-1,3.843254E0,-2.7488856E0,2.0427675E0,1.5216179E-1,-3.839081E-1,-3.159541E0,-7.9103756E0,3.8607252E0,-3.511453E-1,-6.164971E0,-4.045569E-1,-3.298539E0,1.1949685E0,1.7706718E0,4.302661E0,-1.0430504E0,-4.205641E-1,2.814434E0,1.1993315E0,-1.472407E-1,1.1524836E-1,-3.9716442E0,3.0787143E-1,-3.2878914E0,-4.1956326E-1,-2.0730352E-1,5.34317E0,-3.8367435E-1,-3.273422E0,-2.2445379E-1,9.757385E-1,-1.7982584E0,4.547847E0,1.905456E-1,-2.4132061E-1,2.5996324E-1,1.716734E-1,-1.6349454E-1,2.0482698E-1,9.825725E-2,1.8379293E-1,-4.210642E-1,1.2039993E-1,-1.00472465E-1,-2.9190755E-1,-3.2751605E-1,1.6248493E-1,2.662964E-2,2.9388958E-1,-5.9357908E-2,-2.3934603E-1,2.504921E-3,7.067547E-2,1.7354412E-1,-1.7731316E-1,1.3329315E-2,2.775758E-1],"categories":[],"categories_nodes":[],"categories_segments":[],"categories_sizes":[],"default_left":[0,0,0,0,0,0,0,0,0,0,0,0,0,0,0,0,0,0,0,0,0,0,0,0,0,0,0,0,0,0,0,0,0,0,0,0,0,0,0,0,0,0,0,0,0,0,0,0,0,0,0,0,0,0,0,0,0,0,0,0,0,0,0,0,0,0,0,0,0,0,0,0,0],"id":6,"left_children":[1,3,5,7,9,11,13,15,17,19,-1,21,23,25,27,-1,29,31,33,-1,35,37,39,41,-1,43,-1,45,47,49,51,53,-1,55,57,-1,-1,59,-1,61,-1,-1,63,-1,65,-1,67,69,71,-1,-1,-1,-1,-1,-1,-1,-1,-1,-1,-1,-1,-1,-1,-1,-1,-1,-1,-1,-1,-1,-1,-1,-1],"loss_changes":[8.176351E3,6.8337036E2,6.487759E2,5.191201E2,4.934882E2,1.0162889E3,5.749751E2,7.6101416E2,1.6787445E3,2.9605482E1,0E0,3.3881396E2,3.059187E2,6.696484E1,9.9793564E1,0E0,1.5139185E2,8.3156946E2,2.9666724E2,0E0,4.1217487E1,3.6494046E2,2.7983154E1,2.832851E2,0E0,2.4532227E2,0E0,5.5267006E1,1.08537476E2,4.4910138E2,8.813623E1,7.916584E2,0E0,1.6836023E2,2.601721E3,0E0,0E0,1.4209149E2,0E0,1.0660028E2,0E0,0E0,4.5734436E1,0E0,6.694098E1,0E0,1.14484E0,6.757156E1,2.0004875E1,0E0,0E0,0E0,0E0,0E0,0E0,0E0,0E0,0E0,0E0,0E0,0E0,0E0,0E0,0E0,0E0,0E0,0E0,0E0,0E0,0E0,0E0,0E0,0E0],"parents":[2147483647,0,0,1,1,2,2,3,3,4,4,5,5,6,6,7,7,8,8,9,9,11,11,12,12,13,13,14,14,16,16,17,17,18,18,20,20,21,21,22,22,23,23,25,25,27,27,28,28,29,29,30,30,31,31,33,33,34,34,37,37,39,39,42,42,44,44,46,46,47,47,48,48],"right_children":[2,4,6,8,10,12,14,16,18,20,-1,22,24,26,28,-1,30,32,34,-1,36,38,40,42,-1,44,-1,46,48,50,52,54,-1,56,58,-1,-1,60,-1,62,-1,-1,64,-1,66,-1,68,70,72,-1,-1,-1,-1,-1,-1,-1,-1,-1,-1,-1,-1,-1,-1,-1,-1,-1,-1,-1,-1,-1,-1,-1,-1],"split_conditions":[-8.4208144E-4,3.4E1,1E1,-8.7657146E-2,-4.0699307E-2,5.416667E-1,9.4736844E-1,-5.443E-1,-6.985072E-2,-6.440205E-2,-3.9231315E-1,7.5519994E-2,5.688211E-1,2E1,2.5527472E-2,-1.8217547E-1,-1.9082858E-1,-7.738029E-2,-4.0699307E-2,1.5216179E-1,-5.355306E-2,6.596429E-2,3E0,1.445E-2,-3.511453E-1,7.083333E-1,-4.045569E-1,5.2E1,1.9E1,-2.028E-1,-1.0357143E-1,-7.75099E-2,-4.205641E-1,-5.355306E-2,-3.907537E-2,-1.472407E-1,1.1524836E-1,6E0,3.0787143E-1,2.0408164E-1,-4.1956326E-1,-2.0730352E-1,5.714286E-1,-3.8367435E-1,1.4E1,-2.2445379E-1,4.5E-3,1.6E1,9.583333E-1,1.905456E-1,-2.4132061E-1,2.5996324E-1,1.716734E-1,-1.6349454E-1,2.0482698E-1,9.825725E-2,1.8379293E-1,-4.210642E-1,1.2039993E-1,-1.00472465E-1,-2.9190755E-1,-3.2751605E-1,1.6248493E-1,2.662964E-2,2.9388958E-1,-5.9357908E-2,-2.3934603E-1,2.504921E-3,7.067547E-2,1.7354412E-1,-1.7731316E-1,1.3329315E-2,2.775758E-1],"split_indices":[5,1,1,5,5,4,4,5,5,5,0,5,5,1,5,0,5,5,5,0,5,5,1,5,0,4,0,1,1,5,5,5,0,5,5,0,0,1,0,4,0,0,4,0,1,0,5,1,4,0,0,0,0,0,0,0,0,0,0,0,0,0,0,0,0,0,0,0,0,0,0,0,0],"split_type":[0,0,0,0,0,0,0,0,0,0,0,0,0,0,0,0,0,0,0,0,0,0,0,0,0,0,0,0,0,0,0,0,0,0,0,0,0,0,0,0,0,0,0,0,0,0,0,0,0,0,0,0,0,0,0,0,0,0,0,0,0,0,0,0,0,0,0,0,0,0,0,0,0],"sum_hessian":[9.82E2,7.47E2,2.35E2,7.26E2,2.1E1,9.1E1,1.44E2,1.8E2,5.46E2,9E0,1.2E1,6.8E1,2.3E1,1.26E2,1.8E1,1.4E1,1.66E2,8.6E1,4.6E2,5E0,4E0,4.4E1,2.4E1,2.1E1,2E0,6.1E1,6.5E1,9E0,9E0,3.1E1,1.35E2,6.7E1,1.9E1,2.39E2,2.21E2,2E0,2E0,4.1E1,3E0,3E0,2.1E1,3E0,1.8E1,3.9E1,2.2E1,7E0,2E0,5E0,4E0,2.4E1,7E0,6.4E1,7.1E1,4.7E1,2E1,1.22E2,1.17E2,2.4E1,1.97E2,2.1E1,2E1,2E0,1E0,2E0,1.6E1,1E1,1.2E1,1E0,1E0,1E0,4E0,1E0,3E0],"tree_param":{"num_deleted":"0","num_feature":"6","num_nodes":"73","size_leaf_vector":"1"}},{"base_weights":[-1.755376E-2,4.063952E-1,-5.663808E0,7.73068E-2,1.022166E0,-6.86459E0,-8.8335264E-1,5.213991E-1,-6.894623E0,-4.179169E-1,1.342558E0,-2.8983648E0,-3.8407826E-1,1.3160248E-1,-2.400958E0,7.5760645E-1,-6.698769E0,-3.7867716E-1,-2.2377636E0,-1.94013E0,5.445049E-2,1.8288093E0,7.781862E-1,-3.2543123E-1,1.367836E-1,-2.2949448E-1,1.1437378E0,6.004315E-1,2.589535E0,-4.4014287E-1,-2.9683018E0,1.3157158E-1,-2.6651096E-1,4.5329285E-1,-2.9428284E0,2.6598647E-1,-2.3661672E-1,1.9475785E-1,1.6740674E0,-8.923079E-2,2.1353843E0,-1.2216701E-1,2.6513424E0,6.4305656E-2,-5.622259E-3,-3.3211008E-1,1.8533464E-1,4.9108204E-2,-3.5821542E-1,-3.9000034E-2,1.3466167E-1,-2.0815037E-1,-1.0587039E-1,2.0323269E-1,-2.6112935E-4,6.757479E-2,1.4685929E-1,4.709424E-2,-1.6160752E-1,-6.973068E-2,1.7431863E-1,4.756724E-2,1.9378339E-1],"categories":[],"categories_nodes":[],"categories_segments":[],"categories_sizes":[],"default_left":[0,0,0,0,0,0,0,0,0,0,0,0,0,0,0,0,0,0,0,0,0,0,0,0,0,0,0,0,0,0,0,0,0,0,0,0,0,0,0,0,0,0,0,0,0,0,0,0,0,0,0,0,0,0,0,0,0,0,0,0,0,0,0],"id":7,"left_children":[1,3,5,7,9,11,13,15,17,19,21,23,-1,-1,25,27,29,-1,31,33,35,37,39,-1,-1,-1,41,43,45,-1,47,-1,-1,49,51,53,-1,-1,55,57,59,-1,61,-1,-1,-1,-1,-1,-1,-1,-1,-1,-1,-1,-1,-1,-1,-1,-1,-1,-1,-1,-1],"loss_changes":[2.364907E3,1.8614992E2,3.9001587E2,1.861303E3,1.4820627E2,1.5595312E2,8.634433E1,9.686581E2,9.687109E1,4.252923E1,7.047662E1,2.4154916E2,0E0,0E0,9.059969E1,1.5623264E2,1.1515662E2,0E0,1.0437273E2,3.49323E1,4.7837288E1,3.8244324E1,1.449931E2,0E0,0E0,0E0,3.351761E1,2.4748068E2,4.680927E2,0E0,1.3964597E2,0E0,0E0,1.5913244E1,1.2568207E0,4.6381714E1,0E0,0E0,4.9813263E1,2.4933855E2,2.3377344E2,0E0,4.638302E0,0E0,0E0,0E0,0E0,0E0,0E0,0E0,0E0,0E0,0E0,0E0,0E0,0E0,0E0,0E0,0E0,0E0,0E0,0E0,0E0],"parents":[2147483647,0,0,1,1,2,2,3,3,4,4,5,5,6,6,7,7,8,8,9,9,10,10,11,11,14,14,15,15,16,16,18,18,19,19,20,20,21,21,22,22,26,26,27,27,28,28,30,30,33,33,34,34,35,35,38,38,39,39,40,40,42,42],"right_children":[2,4,6,8,10,12,14,16,18,20,22,24,-1,-1,26,28,30,-1,32,34,36,38,40,-1,-1,-1,42,44,46,-1,48,-1,-1,50,52,54,-1,-1,56,58,60,-1,62,-1,-1,-1,-1,-1,-1,-1,-1,-1,-1,-1,-1,-1,-1,-1,-1,-1,-1,-1,-1],"split_conditions":[3.3E1,6.875E-1,9.4736844E-1,2.2E1,9E0,3.5E1,3.9E1,4.1E1,6.3461536E-1,1E0,2.8E1,6.5625E-1,-3.8407826E-1,1.3160248E-1,5.2E1,2.9E1,1.3E1,-3.7867716E-1,2.7E1,5E0,3.6E1,7.037037E-1,4.1E1,-3.2543123E-1,1.367836E-1,-2.2949448E-1,9.6428573E-1,8E0,1E0,-4.4014287E-1,4.6E1,1.3157158E-1,-2.6651096E-1,7.1875E-1,8.3870965E-1,7.037037E-1,-2.3661672E-1,1.9475785E-1,9.354839E-1,3.3E1,1.9E1,-1.2216701E-1,5.3E1,6.4305656E-2,-5.622259E-3,-3.3211008E-1,1.8533464E-1,4.9108204E-2,-3.5821542E-1,-3.9000034E-2,1.3466167E-1,-2.0815037E-1,-1.0587039E-1,2.0323269E-1,-2.6112935E-4,6.757479E-2,1.4685929E-1,4.709424E-2,-1.6160752E-1,-6.973068E-2,1.7431863E-1,4.756724E-2,1.9378339E-1],"split_indices":[1,4,4,1,1,0,0,0,4,3,0,4,0,0,0,0,1,0,0,0,0,4,0,0,0,0,4,1,3,0,0,0,0,4,4,4,0,0,4,0,1,0,0,0,0,0,0,0,0,0,0,0,0,0,0,0,0,0,0,0,0,0,0],"split_type":[0,0,0,0,0,0,0,0,0,0,0,0,0,0,0,0,0,0,0,0,0,0,0,0,0,0,0,0,0,0,0,0,0,0,0,0,0,0,0,0,0,0,0,0,0,0,0,0,0,0,0,0,0,0,0,0,0,0,0,0,0,0,0],"sum_hessian":[9.86E2,9.18E2,6.8E1,5.99E2,3.19E2,5.4E1,1.4E1,5.64E2,3.5E1,5.8E1,2.61E2,1E1,4.4E1,4E0,1E1,5.47E2,1.7E1,3E1,5E0,1.3E1,4.5E1,1.39E2,1.22E2,6E0,4E0,6E0,4E0,5.05E2,4.2E1,1E1,7E0,2E0,3E0,4E0,9E0,4.4E1,1E0,8E0,1.31E2,7.5E1,4.7E1,1E0,3E0,2.57E2,2.48E2,4E0,3.8E1,4E0,3E0,3E0,1E0,2E0,7E0,2E0,4.2E1,1.06E2,2.5E1,5.7E1,1.8E1,1.3E1,3.4E1,2E0,1E0],"tree_param":{"num_deleted":"0","num_feature":"6","num_nodes":"63","size_leaf_vector":"1"}},{"base_weights":[8.4259845E-2,1.7096964E0,-4.7017236E0,1.8233286E0,-5.9764447E0,-5.141162E0,1.0611586E-1,3.2364051E0,1.407433E0,-3.4726414E-1,9.279843E-2,-3.6687639E0,-6.5816574E0,-3.8346946E0,3.7096825E0,1.4501655E-1,4.224489E0,-2.1357796E0,2.0567956E0,-4.6727242E0,2.056838E0,5.5524934E-2,-7.015267E0,-2.5467378E-1,-1.3054626E0,-1.5877558E0,4.9279456E0,1.4784551E0,-2.3801854E-1,2.6299462E-1,3.5763264E0,-3.7805408E-1,-4.0465719E-1,3.5499322E0,1.5739839E0,-3.864502E0,-4.311923E-1,-3.0573413E0,4.2590103E0,-7.087845E0,-2.088239E0,3.1675722E-2,-1.9485855E0,-1.1911278E-1,3.1089785E-5,1.1843439E0,5.715803E0,-1.7499126E-1,1.7455682E-1,2.2706722E-1,1.1951094E-1,-1.143456E-1,1.9019555E-1,2.5192738E-1,1.5839162E-1,-2.5845394E-1,1.0547793E-1,-2.1737301E-1,2.3178641E-1,-1.9991556E-3,-2.2780123E-1,2.7435407E-1,-8.317935E-2,-3.171279E-1,-4.0248033E-1,-1.6525613E-1,8.638191E-3,-1.3074112E-1,1.253128E-3,1.6553402E-1,-7.670822E-2,5.7634354E-2,3.1015036E-1],"categories":[],"categories_nodes":[],"categories_segments":[],"categories_sizes":[],"default_left":[0,0,0,0,0,0,0,0,0,0,0,0,0,0,0,0,0,0,0,0,0,0,0,0,0,0,0,0,0,0,0,0,0,0,0,0,0,0,0,0,0,0,0,0,0,0,0,0,0,0,0,0,0,0,0,0,0,0,0,0,0,0,0,0,0,0,0,0,0,0,0,0,0],"id":8,"left_children":[1,3,5,7,9,11,13,15,17,-1,-1,19,21,23,25,27,29,31,33,35,37,-1,39,-1,41,43,45,47,-1,-1,49,51,-1,53,55,57,-1,59,61,63,65,-1,67,-1,-1,69,71,-1,-1,-1,-1,-1,-1,-1,-1,-1,-1,-1,-1,-1,-1,-1,-1,-1,-1,-1,-1,-1,-1,-1,-1,-1,-1],"loss_changes":[7.7017793E3,6.563345E2,5.308452E2,4.238728E2,9.6362E1,4.636792E2,3.266469E2,5.033888E2,1.3043615E3,0E0,0E0,6.764109E2,3.9136035E2,2.8371902E1,8.526846E1,2.7522034E2,6.507788E1,9.1842444E2,3.3900464E2,2.828181E2,2.1574272E2,0E0,2.417627E1,0E0,7.4694586E0,3.7873778E0,2.2724762E1,3.4286816E2,0E0,0E0,8.071448E1,5.5951086E2,0E0,5.0019653E1,1.3218479E3,3.6499512E2,0E0,2.6950226E1,1.0368205E2,2.5641602E1,8.825135E0,0E0,5.325204E0,0E0,0E0,2.2420519E1,1.0635254E1,0E0,0E0,0E0,0E0,0E0,0E0,0E0,0E0,0E0,0E0,0E0,0E0,0E0,0E0,0E0,0E0,0E0,0E0,0E0,0E0,0E0,0E0,0E0,0E0,0E0,0E0],"parents":[2147483647,0,0,1,1,2,2,3,3,4,4,5,5,6,6,7,7,8,8,11,11,12,12,13,13,14,14,15,15,16,16,17,17,18,18,19,19,20,20,22,22,24,24,25,25,26,26,27,27,30,30,31,31,33,33,34,34,35,35,37,37,38,38,39,39,40,40,42,42,45,45,46,46],"right_children":[2,4,6,8,10,12,14,16,18,-1,-1,20,22,24,26,28,30,32,34,36,38,-1,40,-1,42,44,46,48,-1,-1,50,52,-1,54,56,58,-1,60,62,64,66,-1,68,-1,-1,70,72,-1,-1,-1,-1,-1,-1,-1,-1,-1,-1,-1,-1,-1,-1,-1,-1,-1,-1,-1,-1,-1,-1,-1,-1,-1,-1],"split_conditions":[-4.392857E-3,3.7E1,9.583333E-1,-8.7657146E-2,9.62963E-1,1.2E1,2.5527472E-2,-1.9082858E-1,-6.985072E-2,-3.4726414E-1,9.279843E-2,6.530612E-1,-8.4208144E-4,1.8E1,1E0,-2.028E-1,4.516129E-1,-7.738029E-2,-5.632649E-2,5.688211E-1,1.445E-2,5.5524934E-2,9.4736844E-1,-2.5467378E-1,2.4E1,5.3E1,6.300441E-2,-5.443E-1,-2.3801854E-1,2.6299462E-1,-1.0357143E-1,-7.75099E-2,-4.0465719E-1,-6.946429E-2,-5.355306E-2,1.65E-1,-4.311923E-1,6E0,5.688211E-1,6.596429E-2,1.9E1,3.1675722E-2,5.2E1,-1.1911278E-1,3.1089785E-5,1.6E1,5E0,-1.7499126E-1,1.7455682E-1,2.2706722E-1,1.1951094E-1,-1.143456E-1,1.9019555E-1,2.5192738E-1,1.5839162E-1,-2.5845394E-1,1.0547793E-1,-2.1737301E-1,2.3178641E-1,-1.9991556E-3,-2.2780123E-1,2.7435407E-1,-8.317935E-2,-3.171279E-1,-4.0248033E-1,-1.6525613E-1,8.638191E-3,-1.3074112E-1,1.253128E-3,1.6553402E-1,-7.670822E-2,5.7634354E-2,3.1015036E-1],"split_indices":[5,1,4,5,4,1,5,5,5,0,0,4,5,1,4,5,4,5,5,5,5,0,4,0,1,1,5,5,0,0,5,5,0,5,5,5,0,1,5,5,1,0,1,0,0,1,1,0,0,0,0,0,0,0,0,0,0,0,0,0,0,0,0,0,0,0,0,0,0,0,0,0,0],"split_type":[0,0,0,0,0,0,0,0,0,0,0,0,0,0,0,0,0,0,0,0,0,0,0,0,0,0,0,0,0,0,0,0,0,0,0,0,0,0,0,0,0,0,0,0,0,0,0,0,0,0,0,0,0,0,0,0,0,0,0,0,0,0,0,0,0,0,0,0,0,0,0,0,0],"sum_hessian":[9.88E2,7.38E2,2.5E2,7.28E2,1E1,2.29E2,2.1E1,1.64E2,5.64E2,9E0,1E0,1.15E2,1.14E2,1E1,1.1E1,4E1,1.24E2,8.7E1,4.77E2,9.8E1,1.7E1,6E0,1.08E2,6E0,4E0,2E0,9E0,3.2E1,8E0,4.5E1,7.9E1,6.8E1,1.9E1,1.15E2,3.62E2,8.3E1,1.5E1,5E0,1.2E1,1.06E2,2E0,1E0,3E0,1E0,1E0,2E0,7E0,9E0,2.3E1,4.2E1,3.7E1,4.7E1,2.1E1,2.1E1,9.4E1,2.6E1,3.36E2,7.9E1,4E0,2E0,3E0,1E1,2E0,6.4E1,4.2E1,1E0,1E0,2E0,1E0,1E0,1E0,1E0,6E0],"tree_param":{"num_deleted":"0","num_feature":"6","num_nodes":"73","size_leaf_vector":"1"}},{"base_weights":[2.1260463E-2,1.417245E0,-4.063168E0,2.9465508E0,9.4933933E-1,-2.3352826E0,-5.3490047E0,-1.6100353E-1,3.339801E0,-2.9507186E0,1.7469467E0,-3.8265226E0,1.636515E0,-5.825971E0,2.558814E0,1.4836329E0,3.7926035E0,1.224923E0,-5.1881676E0,1.9957664E0,-4.3690524E0,-6.5968523E0,-2.7469594E0,-3.0514214E0,3.6930082E0,5.1292296E-2,-6.091271E0,-1.43617E0,3.9054053E0,4.4088326E0,-3.0101407E0,4.268322E0,2.3522325E0,-4.22051E0,3.0163416E-1,-7.1194367E0,1.4679988E-1,3.2742314E0,1.5650749E0,-3.3563864E-1,6.077216E-1,3.2372665E-2,-3.4863254E-1,-6.834977E-2,-4.793298E0,-2.6246902E-1,-7.1121854E-1,5.047237E0,-3.6628304E0,-5.283536E0,-7.5040846E0,-1.1613502E-1,8.42228E-3,1.2218476E-3,4.5481606E0,1.5629682E-1,2.645463E-1,-1.0012309E-2,-2.2744718E-1,2.410996E-1,1.8317638E-1,-2.4705854E-1,2.0157988E-1,9.028645E-2,-2.3550041E-1,-2.0179527E-1,-4.460261E-1,2.189418E-1,1.3577196E-1,-2.4500965E-1,1.00959934E-1,1.21917345E-1,-1.3229471E-1,5.4935645E-2,-3.5268193E-1,-1.5212302E-1,-3.1825837E-1,1.7607333E-1,-1.8539639E-1,2.2506714E-2,2.7807972E-1,-3.1619644E-1,1.08011626E-1,-3.132253E-1,-2.388196E-2,-3.8237065E-1,-1.4502893E-1,6.768799E-2,2.4581444E-1],"categories":[],"categories_nodes":[],"categories_segments":[],"categories_sizes":[],"default_left":[0,0,0,0,0,0,0,0,0,0,0,0,0,0,0,0,0,0,0,0,0,0,0,0,0,0,0,0,0,0,0,0,0,0,0,0,0,0,0,0,0,0,0,0,0,0,0,0,0,0,0,0,0,0,0,0,0,0,0,0,0,0,0,0,0,0,0,0,0,0,0,0,0,0,0,0,0,0,0,0,0,0,0,0,0,0,0,0,0],"id":9,"left_children":[1,3,5,7,9,11,13,-1,15,17,19,21,23,25,27,29,31,33,35,37,39,41,43,45,47,-1,49,51,53,55,57,59,61,63,-1,65,-1,67,69,-1,71,-1,-1,73,75,-1,77,79,81,83,85,-1,-1,-1,87,-1,-1,-1,-1,-1,-1,-1,-1,-1,-1,-1,-1,-1,-1,-1,-1,-1,-1,-1,-1,-1,-1,-1,-1,-1,-1,-1,-1,-1,-1,-1,-1,-1,-1],"loss_changes":[5.7303647E3,5.331653E2,5.562842E2,4.351338E2,1.7938157E3,6.637044E2,5.6558496E2,0E0,1.3305188E2,9.2194806E2,7.3613074E2,2.2412915E2,3.101309E2,2.5710352E2,5.4025326E1,4.6020752E2,8.0407715E1,9.417728E2,1.0250596E3,2.4816272E2,2.2569864E2,6.440723E1,3.2855295E2,4.7703247E1,2.376399E2,0E0,1.1212842E2,4.65887E0,1.7350449E1,7.2252502E0,5.9623314E1,1.5150513E1,4.4861084E2,5.865213E1,0E0,2.5279004E2,0E0,5.909265E1,1.0257612E3,0E0,4.8144672E1,0E0,0E0,2.278612E2,7.42052E1,0E0,8.916211E1,4.2423035E1,7.564413E1,4.1187866E2,8.169189E0,0E0,0E0,0E0,4.0022278E-1,0E0,0E0,0E0,0E0,0E0,0E0,0E0,0E0,0E0,0E0,0E0,0E0,0E0,0E0,0E0,0E0,0E0,0E0,0E0,0E0,0E0,0E0,0E0,0E0,0E0,0E0,0E0,0E0,0E0,0E0,0E0,0E0,0E0,0E0],"parents":[2147483647,0,0,1,1,2,2,3,3,4,4,5,5,6,6,8,8,9,9,10,10,11,11,12,12,13,13,14,14,15,15,16,16,17,17,18,18,19,19,20,20,21,21,22,22,23,23,24,24,26,26,27,27,28,28,29,29,30,30,31,31,32,32,33,33,35,35,37,37,38,38,40,40,43,43,44,44,46,46,47,47,48,48,49,49,50,50,54,54],"right_children":[2,4,6,8,10,12,14,-1,16,18,20,22,24,26,28,30,32,34,36,38,40,42,44,46,48,-1,50,52,54,56,58,60,62,64,-1,66,-1,68,70,-1,72,-1,-1,74,76,-1,78,80,82,84,86,-1,-1,-1,88,-1,-1,-1,-1,-1,-1,-1,-1,-1,-1,-1,-1,-1,-1,-1,-1,-1,-1,-1,-1,-1,-1,-1,-1,-1,-1,-1,-1,-1,-1,-1,-1,-1,-1],"split_conditions":[-4.392857E-3,-8.7657146E-2,1E1,-5.443E-1,-6.985072E-2,5.416667E-1,5.2E1,-1.6100353E-1,-1.9082858E-1,-7.947653E-2,3.4E1,1.6129032E-1,1.2594406E-2,-8.4208144E-4,9.6428573E-1,-2.74E-1,-9.3828574E-2,-8.4910154E-2,3.1E1,-5.632649E-2,9.62963E-1,-8.4208144E-4,5E0,-3.7E-3,3.7E1,5.1292296E-2,6.596429E-2,5.3E1,4.5E-3,-4.285E-1,-2.028E-1,-1.316E-1,-8.816618E-2,7.692308E-2,3.0163416E-1,3.478261E-1,1.4679988E-1,3.75E-1,-5.355306E-2,-3.3563864E-1,3.7E1,3.2372665E-2,-3.4863254E-1,3.2E1,9E0,-2.6246902E-1,-3.2020507E-3,5.714286E-1,5.2E1,2.5527472E-2,9.4736844E-1,-1.1613502E-1,8.42228E-3,1.2218476E-3,1.25E-2,1.5629682E-1,2.645463E-1,-1.0012309E-2,-2.2744718E-1,2.410996E-1,1.8317638E-1,-2.4705854E-1,2.0157988E-1,9.028645E-2,-2.3550041E-1,-2.0179527E-1,-4.460261E-1,2.189418E-1,1.3577196E-1,-2.4500965E-1,1.00959934E-1,1.21917345E-1,-1.3229471E-1,5.4935645E-2,-3.5268193E-1,-1.5212302E-1,-3.1825837E-1,1.7607333E-1,-1.8539639E-1,2.2506714E-2,2.7807972E-1,-3.1619644E-1,1.08011626E-1,-3.132253E-1,-2.388196E-2,-3.8237065E-1,-1.4502893E-1,6.768799E-2,2.4581444E-1],"split_indices":[5,5,1,5,5,4,0,0,5,5,1,4,5,5,4,5,5,5,0,5,4,5,1,5,0,0,5,0,5,5,5,5,5,4,0,4,0,4,5,0,0,0,0,0,0,0,5,4,0,5,4,0,0,0,5,0,0,0,0,0,0,0,0,0,0,0,0,0,0,0,0,0,0,0,0,0,0,0,0,0,0,0,0,0,0,0,0,0,0],"split_type":[0,0,0,0,0,0,0,0,0,0,0,0,0,0,0,0,0,0,0,0,0,0,0,0,0,0,0,0,0,0,0,0,0,0,0,0,0,0,0,0,0,0,0,0,0,0,0,0,0,0,0,0,0,0,0,0,0,0,0,0,0,0,0,0,0,0,0,0,0,0,0,0,0,0,0,0,0,0,0,0,0,0,0,0,0,0,0,0,0],"sum_hessian":[1.003E3,7.48E2,2.55E2,1.74E2,5.74E2,1.1E2,1.45E2,1E1,1.64E2,9.7E1,4.77E2,8E1,3E1,1.37E2,8E0,3.3E1,1.31E2,3.4E1,6.3E1,4.59E2,1.8E1,2.1E1,5.9E1,9E0,2.1E1,5E0,1.32E2,2E0,6E0,2E1,1.3E1,9.7E1,3.4E1,1.6E1,1.8E1,5.1E1,1.2E1,1.14E2,3.45E2,1.2E1,6E0,1E0,2E1,2.6E1,3.3E1,4E0,5E0,1.8E1,3E0,8.7E1,4.5E1,1E0,1E0,1E0,5E0,1E1,1E1,5E0,8E0,4.7E1,5E1,6E0,2.8E1,1E0,1.5E1,2E1,3.1E1,3.6E1,7.8E1,2.2E1,3.23E2,4E0,2E0,2.3E1,3E0,1.7E1,1.6E1,2E0,3E0,2E0,1.6E1,2E0,1E0,7.2E1,1.5E1,4.3E1,2E0,1E0,4E0],"tree_param":{"num_deleted":"0","num_feature":"6","num_nodes":"89","size_leaf_vector":"1"}},{"base_weights":[-1.2216904E-1,1.3532076E0,-4.414221E0,9.790625E-1,3.0049021E0,-3.0984664E0,-5.625972E0,1.5719289E0,-2.9238613E0,3.2256765E0,1.6422955E0,-4.1450996E0,1.2120062E0,5.197897E-2,-6.0106363E0,1.0813751E0,3.2364953E0,-3.9271164E-1,8.910705E-1,3.7278867E0,2.2863922E0,-2.0974973E-1,1.2387681E-1,-3.366114E0,-4.012197E-1,-3.452931E0,3.6103842E0,-6.537808E0,-1.7440038E0,2.435806E0,-3.606039E-1,1.8318906E-1,2.551316E0,1.531778E-1,-3.6181164E-1,4.0297923E0,1.3556258E-1,2.419506E0,6.280818E-2,-4.0069623E0,4.34719E0,1.9841003E-1,-2.2622578E-1,5.422211E0,-1.8224427E0,-5.8473053E0,-3.7203345E-1,-2.4758863E0,2.0088222E0,-1.637293E-1,1.3992144E-1,-2.3661856E-1,8.573045E-2,1.1123326E-1,1.8779564E-1,1.5718332E-1,2.5629914E-1,1.4079463E-1,1.0106236E-1,-2.8405377E-1,-1.07212715E-1,5.7641983E-2,2.697181E-1,1.3723354E-1,-1.22352794E-1,3.580761E-2,2.877352E-1,-2.959971E-1,1.4412689E-1,-3.1742457E-1,-1.7482477E-1,-3.2458305E-2,-1.479493E-1,8.211709E-3,1.4244996E-1],"categories":[],"categories_nodes":[],"categories_segments":[],"categories_sizes":[],"default_left":[0,0,0,0,0,0,0,0,0,0,0,0,0,0,0,0,0,0,0,0,0,0,0,0,0,0,0,0,0,0,0,0,0,0,0,0,0,0,0,0,0,0,0,0,0,0,0,0,0,0,0,0,0,0,0,0,0,0,0,0,0,0,0,0,0,0,0,0,0,0,0,0,0,0,0],"id":10,"left_children":[1,3,5,7,9,11,13,15,17,19,21,23,25,-1,27,29,31,-1,33,35,37,-1,-1,39,-1,41,43,45,47,49,51,-1,53,-1,-1,55,-1,57,-1,59,61,63,-1,65,67,69,-1,71,73,-1,-1,-1,-1,-1,-1,-1,-1,-1,-1,-1,-1,-1,-1,-1,-1,-1,-1,-1,-1,-1,-1,-1,-1,-1,-1],"loss_changes":[6.2877075E3,4.5374048E2,3.875376E2,1.4021992E3,3.5615112E1,5.644479E2,3.421333E2,4.2519385E2,1.511721E3,4.6195923E1,1.1277964E2,2.7518054E2,2.921735E2,0E0,2.675039E2,7.957741E2,2.5491821E1,0E0,8.3436523E2,1.1786865E1,2.857605E0,0E0,0E0,4.3757892E2,0E0,3.6112206E1,1.7721849E2,2.5069336E1,4.6173042E1,4.440144E2,1.8044391E3,0E0,1.0924988E1,0E0,0E0,3.7310608E1,0E0,1.4936829E-1,0E0,2.3417053E2,1.7196426E1,2.6924501E1,0E0,1.6220245E1,1.1345774E2,5.6741455E1,0E0,9.551468E0,4.1814375E0,0E0,0E0,0E0,0E0,0E0,0E0,0E0,0E0,0E0,0E0,0E0,0E0,0E0,0E0,0E0,0E0,0E0,0E0,0E0,0E0,0E0,0E0,0E0,0E0,0E0,0E0],"parents":[2147483647,0,0,1,1,2,2,3,3,4,4,5,5,6,6,7,7,8,8,9,9,10,10,11,11,12,12,14,14,15,15,16,16,18,18,19,19,20,20,23,23,25,25,26,26,27,27,28,28,29,29,30,30,32,32,35,35,37,37,39,39,40,40,41,41,43,43,44,44,45,45,47,47,48,48],"right_children":[2,4,6,8,10,12,14,16,18,20,22,24,26,-1,28,30,32,-1,34,36,38,-1,-1,40,-1,42,44,46,48,50,52,-1,54,-1,-1,56,-1,58,-1,60,62,64,-1,66,68,70,-1,72,74,-1,-1,-1,-1,-1,-1,-1,-1,-1,-1,-1,-1,-1,-1,-1,-1,-1,-1,-1,-1,-1,-1,-1,-1,-1,-1],"split_conditions":[-4.392857E-3,-3.4169566E-2,1.44E2,-4.0699307E-2,-1.92E-2,6.530612E-1,-8.4208144E-4,-5.355306E-2,-3.907537E-2,1.6E1,-1.5222223E-2,5.688211E-1,1.445E-2,5.197897E-2,9.4736844E-1,-7.947653E-2,3.61E2,-3.9271164E-1,-3.578901E-2,-1.9862903E-2,4.5E1,-2.0974973E-1,1.2387681E-1,2.9E1,-4.012197E-1,5E0,3.7E1,6.596429E-2,5.3E1,-5.443E-1,-6.985072E-2,1.8318906E-1,3.6E1,1.531778E-1,-3.6181164E-1,-2.7216783E-2,1.3556258E-1,-2.8843952E-2,6.280818E-2,2.5527472E-2,2.3539285E-1,-3.2020507E-3,-2.2622578E-1,1.6E1,5.2E1,1.9983625E-2,-3.7203345E-1,1.6E1,5.4E1,-1.637293E-1,1.3992144E-1,-2.3661856E-1,8.573045E-2,1.1123326E-1,1.8779564E-1,1.5718332E-1,2.5629914E-1,1.4079463E-1,1.0106236E-1,-2.8405377E-1,-1.07212715E-1,5.7641983E-2,2.697181E-1,1.3723354E-1,-1.22352794E-1,3.580761E-2,2.877352E-1,-2.959971E-1,1.4412689E-1,-3.1742457E-1,-1.7482477E-1,-3.2458305E-2,-1.479493E-1,8.211709E-3,1.4244996E-1],"split_indices":[5,5,2,5,5,4,5,5,5,0,5,5,5,0,4,5,2,0,5,5,0,0,0,0,0,0,0,5,0,5,5,0,0,0,0,5,0,5,0,5,5,5,0,2,0,5,0,0,0,0,0,0,0,0,0,0,0,0,0,0,0,0,0,0,0,0,0,0,0,0,0,0,0,0,0],"split_type":[0,0,0,0,0,0,0,0,0,0,0,0,0,0,0,0,0,0,0,0,0,0,0,0,0,0,0,0,0,0,0,0,0,0,0,0,0,0,0,0,0,0,0,0,0,0,0,0,0,0,0,0,0,0,0,0,0,0,0,0,0,0,0,0,0,0,0,0,0,0,0,0,0,0,0],"sum_hessian":[9.91E2,7.38E2,2.53E2,6.03E2,1.35E2,1.23E2,1.3E2,5.24E2,7.9E1,1.15E2,2E1,9.9E1,2.4E1,7E0,1.23E2,4.06E2,1.18E2,3.4E1,4.5E1,7.3E1,4.2E1,2E0,1.8E1,8.4E1,1.5E1,8E0,1.6E1,1.09E2,1.4E1,2.09E2,1.97E2,7E1,4.8E1,3.6E1,9E0,5.4E1,1.9E1,3.6E1,6E0,7.8E1,6E0,2E0,6E0,1.2E1,4E0,6.6E1,4.3E1,1.2E1,2E0,1.2E1,1.97E2,6.3E1,1.34E2,4E1,8E0,3.2E1,2.2E1,1.5E1,2.1E1,4E1,3.8E1,2E0,4E0,1E0,1E0,1E0,1.1E1,2E0,2E0,5.3E1,1.3E1,3E0,9E0,1E0,1E0],"tree_param":{"num_deleted":"0","num_feature":"6","num_nodes":"75","size_leaf_vector":"1"}},{"base_weights":[6.8301E-2,1.4569805E0,-3.8560293E0,1.6095817E0,-3.0084221E0,-2.4296815E0,-5.0643725E0,-1.503755E-1,1.7051281E0,1.1609135E0,-3.1836256E-1,-1.5442066E0,-6.657027E0,5.2073747E-2,-5.485381E0,3.0031385E0,1.3051744E0,1.4214675E-1,-9.9493027E-1,-3.7686467E0,5.4405665E-1,-3.8718396E-1,-1.6310043E0,-5.6943293E0,1.002559E0,-2.8917847E0,3.565117E0,-1.9604008E0,2.0108917E0,-1.4546204E-1,9.445636E-2,-2.8983965E0,-5.606004E0,3.0151784E-1,-1.7206833E0,-2.7523968E-1,1.3932267E-1,-3.7731457E0,-5.9329643E0,-4.61586E-1,1.7147847E-1,2.3750959E-2,-2.5945503E-1,5.742649E-2,2.0873754E-1,-3.0568648E-2,-3.5617948E-1,1.23949446E-1,7.021379E-2,-2.193534E-1,2.63807E-1,-1.9213657E-1,-3.3342633E-1,-2.0304027E-1,2.3025773E-1,-2.4222945E-1,-7.7521466E-2,-2.642835E-1,-3.2179078E-1,6.969452E-2,-7.7235416E-2],"categories":[],"categories_nodes":[],"categories_segments":[],"categories_sizes":[],"default_left":[0,0,0,0,0,0,0,0,0,0,0,0,0,0,0,0,0,0,0,0,0,0,0,0,0,0,0,0,0,0,0,0,0,0,0,0,0,0,0,0,0,0,0,0,0,0,0,0,0,0,0,0,0,0,0,0,0,0,0,0,0],"id":11,"left_children":[1,3,5,7,9,11,13,-1,15,17,-1,19,21,-1,23,25,27,-1,29,31,33,-1,35,37,39,41,43,45,47,-1,-1,49,51,-1,53,-1,-1,55,57,59,-1,-1,-1,-1,-1,-1,-1,-1,-1,-1,-1,-1,-1,-1,-1,-1,-1,-1,-1,-1,-1],"loss_changes":[5.5043022E3,5.131858E2,4.4270386E2,3.2363574E2,3.57494E2,4.5013483E2,3.7073975E2,0E0,3.6363428E2,4.6342625E1,0E0,4.8050766E2,1.02062256E2,0E0,1.8600928E2,5.6023755E2,1.255325E3,0E0,3.862181E1,6.3699707E1,6.813287E2,0E0,1.0090036E2,3.675586E1,1.9350515E1,1.184841E2,2.1913647E2,6.7127747E2,1.234469E2,0E0,0E0,4.6123795E2,2.4773865E0,0E0,5.960267E2,0E0,0E0,3.2974533E1,2.7626953E0,1.0191985E1,0E0,0E0,0E0,0E0,0E0,0E0,0E0,0E0,0E0,0E0,0E0,0E0,0E0,0E0,0E0,0E0,0E0,0E0,0E0,0E0,0E0],"parents":[2147483647,0,0,1,1,2,2,3,3,4,4,5,5,6,6,8,8,9,9,11,11,12,12,14,14,15,15,16,16,18,18,19,19,20,20,22,22,23,23,24,24,25,25,26,26,27,27,28,28,31,31,32,32,34,34,37,37,38,38,39,39],"right_children":[2,4,6,8,10,12,14,-1,16,18,-1,20,22,-1,24,26,28,-1,30,32,34,-1,36,38,40,42,44,46,48,-1,-1,50,52,-1,54,-1,-1,56,58,60,-1,-1,-1,-1,-1,-1,-1,-1,-1,-1,-1,-1,-1,-1,-1,-1,-1,-1,-1,-1,-1],"split_conditions":[-4.392857E-3,3.4E1,1.1E1,-5.443E-1,-4.0699307E-2,5.688211E-1,-8.4208144E-4,-1.503755E-1,-8.7657146E-2,-6.440205E-2,-3.1836256E-1,2.5527472E-2,9E0,5.2073747E-2,5.2E1,1E0,-6.985072E-2,1.4214675E-1,-5.355306E-2,1.9904412E-2,4.5185715E-2,-3.8718396E-1,2.3964834E0,1E0,5.4E1,-1.4613333E-1,-1.9082858E-1,-7.738029E-2,-4.0699307E-2,-1.4546204E-1,9.445636E-2,1.445E-2,1E0,3.0151784E-1,1.65E-1,-2.7523968E-1,1.3932267E-1,1.8E1,2.2E1,1.25E-2,1.7147847E-1,2.3750959E-2,-2.5945503E-1,5.742649E-2,2.0873754E-1,-3.0568648E-2,-3.5617948E-1,1.23949446E-1,7.021379E-2,-2.193534E-1,2.63807E-1,-1.9213657E-1,-3.3342633E-1,-2.0304027E-1,2.3025773E-1,-2.4222945E-1,-7.7521466E-2,-2.642835E-1,-3.2179078E-1,6.969452E-2,-7.7235416E-2],"split_indices":[5,1,1,5,5,5,5,0,5,5,0,5,1,0,1,3,5,0,5,5,5,0,5,3,1,5,5,5,5,0,0,5,3,0,5,0,0,1,1,5,0,0,0,0,0,0,0,0,0,0,0,0,0,0,0,0,0,0,0,0,0],"split_type":[0,0,0,0,0,0,0,0,0,0,0,0,0,0,0,0,0,0,0,0,0,0,0,0,0,0,0,0,0,0,0,0,0,0,0,0,0,0,0,0,0,0,0,0,0,0,0,0,0,0,0,0,0,0,0,0,0,0,0,0,0],"sum_hessian":[1.008E3,7.45E2,2.63E2,7.21E2,2.4E1,1.22E2,1.41E2,1.4E1,7.07E2,1.1E1,1.3E1,1.02E2,2E1,9E0,1.32E2,1.65E2,5.42E2,6E0,5E0,4.9E1,5.3E1,1.6E1,4E0,1.28E2,4E0,1.4E1,1.51E2,9.6E1,4.46E2,3E0,2E0,3.5E1,1.4E1,1.5E1,3.8E1,2E0,2E0,1.6E1,1.12E2,3E0,1E0,6E0,8E0,3.1E1,1.2E2,7.7E1,1.9E1,2.5E2,1.96E2,3E1,5E0,7E0,7E0,2.8E1,1E1,1E1,6E0,5.4E1,5.8E1,1E0,2E0],"tree_param":{"num_deleted":"0","num_feature":"6","num_nodes":"61","size_leaf_vector":"1"}},{"base_weights":[-2.3910018E-2,1.3195195E0,-3.867241E0,1.4658656E0,-3.2356002E0,-4.184882E0,2.4899368E-1,2.6540446E0,1.0578011E0,1.3776649E0,-3.047702E-1,-2.5902393E0,-5.2702847E0,-2.442009E0,2.7977142E-1,-1.4615957E-1,3.1195877E0,-2.6997957E0,1.8867875E0,1.3209853E-1,-4.1503447E-1,-1.616597E0,-6.758435E0,4.850593E-2,-5.5915284E0,-3.08601E0,9.4799805E-1,-1.3079762E0,3.576227E0,1.2781067E-1,-4.509705E0,3.1612198E0,1.4526517E0,-1.2589392E-1,9.130771E-2,-3.0588874E-1,-2.067486E-1,-3.676091E-1,9.822521E-2,-5.9342365E0,-3.7914114E0,-4.0439053E0,-1.5924263E-1,3.1476975E-3,6.7952156E-2,8.1953734E-2,-2.4141465E-1,6.987505E-2,2.0173705E-1,-2.3285477E-1,2.8307506E-1,-4.3716714E-1,-9.486554E-2,2.2199576E-1,1.4123705E-1,-2.362258E-1,8.866342E-2,-1.9872059E-1,6.603741E-2,-2.6052016E-1,-3.4353128E-1,2.5346223E-1,-2.3911527E-1,-2.1556154E-1,-4.76326E-2,1.694111E-1,-1.23556904E-1],"categories":[],"categories_nodes":[],"categories_segments":[],"categories_sizes":[],"default_left":[0,0,0,0,0,0,0,0,0,0,0,0,0,0,0,0,0,0,0,0,0,0,0,0,0,0,0,0,0,0,0,0,0,0,0,0,0,0,0,0,0,0,0,0,0,0,0,0,0,0,0,0,0,0,0,0,0,0,0,0,0,0,0,0,0,0,0],"id":12,"left_children":[1,3,5,7,9,11,13,15,17,19,-1,21,23,25,-1,-1,27,29,31,-1,33,35,37,-1,39,41,43,45,47,49,51,53,55,-1,-1,-1,57,-1,-1,59,61,63,65,-1,-1,-1,-1,-1,-1,-1,-1,-1,-1,-1,-1,-1,-1,-1,-1,-1,-1,-1,-1,-1,-1,-1,-1],"loss_changes":[5.302592E3,5.120436E2,3.488335E2,3.5501453E2,3.250302E2,4.1386328E2,3.0140952E2,4.9725037E2,1.7214572E3,2.3761703E1,0E0,4.0302417E2,2.9810938E2,3.3489883E1,0E0,0E0,3.5647095E2,5.1234766E2,2.4548901E2,0E0,2.816238E1,5.3179736E2,1.1284857E2,0E0,6.3251953E1,3.299849E1,1.005822E0,1.8428133E2,1.5219983E2,1.0854938E3,6.580669E2,3.6507202E1,6.7976843E2,0E0,0E0,0E0,3.793303E2,0E0,0E0,4.2146973E1,2.4374191E2,3.3302307E0,4.117823E1,0E0,0E0,0E0,0E0,0E0,0E0,0E0,0E0,0E0,0E0,0E0,0E0,0E0,0E0,0E0,0E0,0E0,0E0,0E0,0E0,0E0,0E0,0E0,0E0],"parents":[2147483647,0,0,1,1,2,2,3,3,4,4,5,5,6,6,7,7,8,8,9,9,11,11,12,12,13,13,16,16,17,17,18,18,20,20,21,21,22,22,24,24,25,25,26,26,27,27,28,28,29,29,30,30,31,31,32,32,36,36,39,39,40,40,41,41,42,42],"right_children":[2,4,6,8,10,12,14,16,18,20,-1,22,24,26,-1,-1,28,30,32,-1,34,36,38,-1,40,42,44,46,48,50,52,54,56,-1,-1,-1,58,-1,-1,60,62,64,66,-1,-1,-1,-1,-1,-1,-1,-1,-1,-1,-1,-1,-1,-1,-1,-1,-1,-1,-1,-1,-1,-1,-1,-1],"split_conditions":[-4.392857E-3,1.156E3,9.6428573E-1,-8.7657146E-2,-4.0699307E-2,1E2,6.596429E-2,-5.443E-1,-6.985072E-2,-6.440205E-2,-3.047702E-1,5.688211E-1,-8.4208144E-4,2.704E3,2.7977142E-1,-1.4615957E-1,1E0,-7.947653E-2,-5.632649E-2,1.3209853E-1,-5.355306E-2,1.8518518E-1,7.037037E-1,4.850593E-2,8.666667E-1,2.5527472E-2,4.5E-3,-1.4613333E-1,-1.9082858E-1,-8.4910154E-2,-7.75099E-2,-6.946429E-2,-5.355306E-2,-1.2589392E-1,9.130771E-2,-3.0588874E-1,1.445E-2,-3.676091E-1,9.822521E-2,6.596429E-2,1.96E2,6.25E2,2.56E2,3.1476975E-3,6.7952156E-2,8.1953734E-2,-2.4141465E-1,6.987505E-2,2.0173705E-1,-2.3285477E-1,2.8307506E-1,-4.3716714E-1,-9.486554E-2,2.2199576E-1,1.4123705E-1,-2.362258E-1,8.866342E-2,-1.9872059E-1,6.603741E-2,-2.6052016E-1,-3.4353128E-1,2.5346223E-1,-2.3911527E-1,-2.1556154E-1,-4.76326E-2,1.694111E-1,-1.23556904E-1],"split_indices":[5,2,4,5,5,2,5,5,5,5,0,5,5,2,0,0,3,5,5,0,5,4,4,0,4,5,5,5,5,5,5,5,5,0,0,0,5,0,0,5,2,2,2,0,0,0,0,0,0,0,0,0,0,0,0,0,0,0,0,0,0,0,0,0,0,0,0],"split_type":[0,0,0,0,0,0,0,0,0,0,0,0,0,0,0,0,0,0,0,0,0,0,0,0,0,0,0,0,0,0,0,0,0,0,0,0,0,0,0,0,0,0,0,0,0,0,0,0,0,0,0,0,0,0,0,0,0,0,0,0,0,0,0,0,0,0,0],"sum_hessian":[1.025E3,7.6E2,2.65E2,7.37E2,2.3E1,2.46E2,1.9E1,1.87E2,5.5E2,9E0,1.4E1,1.01E2,1.45E2,1.3E1,6E0,1.4E1,1.73E2,9.9E1,4.51E2,5E0,4E0,8.3E1,1.8E1,7E0,1.38E2,1.1E1,2E0,1.6E1,1.57E2,3.9E1,6E1,1.13E2,3.38E2,2E0,2E0,1.9E1,6.4E1,1.7E1,1E0,1.14E2,2.4E1,8E0,3E0,1E0,1E0,9E0,7E0,2.8E1,1.29E2,2.1E1,1.8E1,2.2E1,3.8E1,2.1E1,9.2E1,1.6E1,3.22E2,1.8E1,4.6E1,6.8E1,4.6E1,2E0,2.2E1,7E0,1E0,1E0,2E0],"tree_param":{"num_deleted":"0","num_feature":"6","num_nodes":"67","size_leaf_vector":"1"}},{"base_weights":[-5.278645E-2,1.1362181E0,-3.6244001E0,1.2671673E0,-3.420046E0,-3.8373542E0,1.8063462E0,2.42706E0,8.71746E-1,1.0209541E0,-2.856736E-1,-3.1702814E0,-5.5640206E0,3.2050976E-1,1.9774866E-1,-1.8946627E-1,3.3069844E0,-2.8697436E0,1.6769398E0,1.2891236E-1,-1.21697485E-1,-3.6027536E0,3.565696E0,4.5304585E-2,-6.3605185E0,9.57695E-2,-2.6453528E-1,9.8991954E-1,-2.326093E-1,-2.1097877E0,3.7501144E0,-1.6380932E0,-3.3538365E-1,2.888195E0,1.2608775E0,-2.8939514E0,-3.1643945E-1,4.5828505E0,-1.6514626E-1,-3.219758E-1,-4.6441842E-2,6.625328E-2,-8.4746855E-1,-1.3214587E-1,1.4923558E-1,1.7446099E-1,-2.3227839E-1,1.9547021E-1,1.2841685E-1,-1.7243056E-1,1.8921928E-1,2.1173692E-1,1.2854855E-1,-2.339019E-1,8.5829854E-2,-2.3313461E-1,8.020288E-2,4.337667E-2,2.7016193E-1,-7.6760866E-2,6.138484E-3],"categories":[],"categories_nodes":[],"categories_segments":[],"categories_sizes":[],"default_left":[0,0,0,0,0,0,0,0,0,0,0,0,0,0,0,0,0,0,0,0,0,0,0,0,0,0,0,0,0,0,0,0,0,0,0,0,0,0,0,0,0,0,0,0,0,0,0,0,0,0,0,0,0,0,0,0,0,0,0,0,0],"id":13,"left_children":[1,3,5,7,9,11,13,15,17,19,-1,21,23,25,-1,27,29,31,33,-1,-1,35,37,-1,39,-1,41,43,-1,45,47,49,-1,51,53,55,-1,57,-1,-1,-1,-1,59,-1,-1,-1,-1,-1,-1,-1,-1,-1,-1,-1,-1,-1,-1,-1,-1,-1,-1],"loss_changes":[4.1998228E3,4.4703998E2,2.9258716E2,3.2902673E2,2.1972035E2,2.5649194E2,3.0657475E1,4.219557E2,1.6316295E3,4.9317703E1,0E0,5.1972986E2,3.4073633E2,7.038225E0,0E0,2.519789E2,3.367578E2,4.4280292E2,2.206195E2,0E0,0E0,2.9856885E2,9.198776E1,0E0,1.8906006E1,0E0,6.6827393E0,2.8326495E2,0E0,1.7238579E2,1.3866333E1,7.395456E2,0E0,3.7381226E1,9.0928845E2,1.0576465E3,0E0,2.5792511E1,0E0,0E0,0E0,0E0,3.5248785E0,0E0,0E0,0E0,0E0,0E0,0E0,0E0,0E0,0E0,0E0,0E0,0E0,0E0,0E0,0E0,0E0,0E0,0E0],"parents":[2147483647,0,0,1,1,2,2,3,3,4,4,5,5,6,6,7,7,8,8,9,9,11,11,12,12,13,13,15,15,16,16,17,17,18,18,21,21,22,22,24,24,26,26,27,27,29,29,30,30,31,31,33,33,34,34,35,35,37,37,42,42],"right_children":[2,4,6,8,10,12,14,16,18,20,-1,22,24,26,-1,28,30,32,34,-1,-1,36,38,-1,40,-1,42,44,-1,46,48,50,-1,52,54,56,-1,58,-1,-1,-1,-1,60,-1,-1,-1,-1,-1,-1,-1,-1,-1,-1,-1,-1,-1,-1,-1,-1,-1,-1],"split_conditions":[-4.392857E-3,3.5E1,5.2E1,-8.7657146E-2,-4.0699307E-2,3.7E1,5.4E1,-1.9082858E-1,-6.985072E-2,4.1E1,-2.856736E-1,1.65E-1,-8.4208144E-4,1E1,1.9774866E-1,-2.028E-1,1E0,-7.738029E-2,-5.632649E-2,1.2891236E-1,-1.21697485E-1,7.5519994E-2,5.688211E-1,4.5304585E-2,5.1E1,9.57695E-2,1.25E-2,-5.443E-1,-2.326093E-1,-1.4613333E-1,3.2E1,-7.75099E-2,-3.3538365E-1,-6.946429E-2,-5.355306E-2,2.5527472E-2,-3.1643945E-1,2.3539285E-1,-1.6514626E-1,-3.219758E-1,-4.6441842E-2,6.625328E-2,5.3E1,-1.3214587E-1,1.4923558E-1,1.7446099E-1,-2.3227839E-1,1.9547021E-1,1.2841685E-1,-1.7243056E-1,1.8921928E-1,2.1173692E-1,1.2854855E-1,-2.339019E-1,8.5829854E-2,-2.3313461E-1,8.020288E-2,4.337667E-2,2.7016193E-1,-7.6760866E-2,6.138484E-3],"split_indices":[5,1,0,5,5,0,0,5,5,0,0,5,5,1,0,5,3,5,5,0,0,5,5,0,1,0,5,5,0,5,0,5,0,5,5,5,0,5,0,0,0,0,0,0,0,0,0,0,0,0,0,0,0,0,0,0,0,0,0,0,0],"split_type":[0,0,0,0,0,0,0,0,0,0,0,0,0,0,0,0,0,0,0,0,0,0,0,0,0,0,0,0,0,0,0,0,0,0,0,0,0,0,0,0,0,0,0,0,0,0,0,0,0,0,0,0,0,0,0,0,0,0,0,0,0],"sum_hessian":[9.87E2,7.41E2,2.46E2,7.21E2,2E1,2.37E2,9E0,1.82E2,5.39E2,7E0,1.3E1,1.73E2,6.4E1,6E0,3E0,4.6E1,1.36E2,9.5E1,4.44E2,5E0,2E0,1.63E2,1E1,7E0,5.7E1,1E0,5E0,3.7E1,9E0,1E1,1.26E2,7.3E1,2.2E1,1.12E2,3.32E2,1.31E2,3.2E1,9E0,1E0,5.6E1,1E0,1E0,4E0,1.3E1,2.4E1,3E0,7E0,1.09E2,1.7E1,5.5E1,1.8E1,1.9E1,9.3E1,2.3E1,3.09E2,9.4E1,3.7E1,2E0,7E0,2E0,2E0],"tree_param":{"num_deleted":"0","num_feature":"6","num_nodes":"61","size_leaf_vector":"1"}},{"base_weights":[3.880263E-2,1.2770388E0,-3.5093696E0,2.4183598E0,8.8472223E-1,-2.386809E0,-4.499794E0,-2.2149289E0,2.9161165E0,-2.4310465E0,1.5559912E0,-1.7000062E0,-6.0928245E0,-4.7987595E0,1.737963E0,3.9222413E-1,-2.3002945E-1,-1.2087982E-1,3.2602813E0,4.7501412E-1,-4.3257704E0,1.7140906E0,-4.52875E0,-3.606678E0,2.0283833E-1,-3.3177182E-1,9.185486E-2,4.25694E-2,-5.1245856E0,1.6214791E-1,9.4663745E-1,-1.7282395E-1,1.767053E-1,1.592769E0,3.5819855E0,-2.156153E-1,2.7446488E-1,-6.3489246E0,1.5051042E-1,1.3723617E0,2.506355E0,-5.329056E-1,-2.6373145E-1,-4.354602E0,-1.9104593E0,2.7782947E-1,-1.9987732E0,-3.2949076E0,-5.3275E0,-1.0606384E-1,1.552536E-1,2.1777582E-1,-2.361822E-1,1.901964E-1,1.3743679E-1,-1.4739503E-1,-3.8192344E-1,8.369761E-2,-3.598466E-1,1.3474594E-1,6.771965E-2,6.330452E-2,-1.0327244E-1,-2.3558722E-1,5.72272E-2,2.6356557E-1,-2.5390822E-1,-1.9635381E-1,1.9930065E-1,-2.0863347E-1,-1.1230516E-1,-2.045073E-1,-2.770451E-1,4.4006348E-2,-5.2845E-2],"categories":[],"categories_nodes":[],"categories_segments":[],"categories_sizes":[],"default_left":[0,0,0,0,0,0,0,0,0,0,0,0,0,0,0,0,0,0,0,0,0,0,0,0,0,0,0,0,0,0,0,0,0,0,0,0,0,0,0,0,0,0,0,0,0,0,0,0,0,0,0,0,0,0,0,0,0,0,0,0,0,0,0,0,0,0,0,0,0,0,0,0,0,0,0],"id":14,"left_children":[1,3,5,7,9,11,13,15,17,19,21,23,25,27,29,31,-1,-1,33,35,37,39,41,43,45,-1,-1,-1,47,-1,49,-1,-1,51,53,-1,-1,55,-1,57,59,61,-1,63,65,-1,67,69,71,73,-1,-1,-1,-1,-1,-1,-1,-1,-1,-1,-1,-1,-1,-1,-1,-1,-1,-1,-1,-1,-1,-1,-1,-1,-1],"loss_changes":[4.415531E3,3.3144104E2,2.783308E2,4.4464636E2,1.2413121E3,3.0525958E2,2.6382812E2,1.1998031E2,3.2361853E2,5.196359E2,4.5316565E2,3.8531018E2,9.394452E1,2.455293E2,5.2666817E0,1.3313727E2,0E0,0E0,8.119885E1,9.358608E2,8.650951E2,1.1893457E2,3.295407E1,5.8918762E1,6.4759784E2,0E0,0E0,0E0,2.8483398E1,0E0,1.3962456E1,0E0,0E0,5.091922E2,1.4510132E1,0E0,0E0,1.7484216E2,0E0,8.338921E2,2.5674438E1,1.0886162E1,0E0,7.609595E1,4.362638E2,0E0,4.6573215E2,4.436783E0,6.3830566E0,5.618736E0,0E0,0E0,0E0,0E0,0E0,0E0,0E0,0E0,0E0,0E0,0E0,0E0,0E0,0E0,0E0,0E0,0E0,0E0,0E0,0E0,0E0,0E0,0E0,0E0,0E0],"parents":[2147483647,0,0,1,1,2,2,3,3,4,4,5,5,6,6,7,7,8,8,9,9,10,10,11,11,12,12,13,13,14,14,15,15,18,18,19,19,20,20,21,21,22,22,23,23,24,24,28,28,30,30,33,33,34,34,37,37,39,39,40,40,41,41,43,43,44,44,46,46,47,47,48,48,49,49],"right_children":[2,4,6,8,10,12,14,16,18,20,22,24,26,28,30,32,-1,-1,34,36,38,40,42,44,46,-1,-1,-1,48,-1,50,-1,-1,52,54,-1,-1,56,-1,58,60,62,-1,64,66,-1,68,70,72,74,-1,-1,-1,-1,-1,-1,-1,-1,-1,-1,-1,-1,-1,-1,-1,-1,-1,-1,-1,-1,-1,-1,-1,-1,-1],"split_conditions":[-4.392857E-3,-8.7657146E-2,1.44E2,1E0,-6.985072E-2,5.688211E-1,5.2E1,-1.4613333E-1,-5.443E-1,-7.947653E-2,1.296E3,2.5527472E-2,5.2E1,-8.4208144E-4,4E2,-5.097E-1,-2.3002945E-1,-1.2087982E-1,-1.9082858E-1,-8.4910154E-2,3.1E1,-3.4169566E-2,-4.0699307E-2,1.445E-2,4.5185715E-2,-3.3177182E-1,9.185486E-2,4.25694E-2,1E0,1.6214791E-1,5.4E1,-1.7282395E-1,1.767053E-1,-2.74E-1,2.56E2,-2.156153E-1,2.7446488E-1,1E2,1.5051042E-1,-3.578901E-2,-1.92E-2,3.7E1,-2.6373145E-1,1.2E1,1.9904412E-2,2.7782947E-1,2.9E1,2.89E2,1.6E1,1.25E-2,1.552536E-1,2.1777582E-1,-2.361822E-1,1.901964E-1,1.3743679E-1,-1.4739503E-1,-3.8192344E-1,8.369761E-2,-3.598466E-1,1.3474594E-1,6.771965E-2,6.330452E-2,-1.0327244E-1,-2.3558722E-1,5.72272E-2,2.6356557E-1,-2.5390822E-1,-1.9635381E-1,1.9930065E-1,-2.0863347E-1,-1.1230516E-1,-2.045073E-1,-2.770451E-1,4.4006348E-2,-5.2845E-2],"split_indices":[5,5,2,3,5,5,0,5,5,5,2,5,0,5,2,5,0,0,5,5,0,5,5,5,5,0,0,0,3,0,0,0,0,5,2,0,0,2,0,5,5,0,0,0,5,0,0,2,0,5,0,0,0,0,0,0,0,0,0,0,0,0,0,0,0,0,0,0,0,0,0,0,0,0,0],"split_type":[0,0,0,0,0,0,0,0,0,0,0,0,0,0,0,0,0,0,0,0,0,0,0,0,0,0,0,0,0,0,0,0,0,0,0,0,0,0,0,0,0,0,0,0,0,0,0,0,0,0,0,0,0,0,0,0,0,0,0,0,0,0,0,0,0,0,0,0,0,0,0,0,0,0,0],"sum_hessian":[1.003E3,7.44E2,2.59E2,1.89E2,5.55E2,1.23E2,1.36E2,1.8E1,1.71E2,9.3E1,4.62E2,1.05E2,1.8E1,1.3E2,6E0,9E0,9E0,1E1,1.61E2,3.7E1,5.6E1,4.51E2,1.1E1,5.2E1,5.3E1,1.7E1,1E0,7E0,1.23E2,1E0,5E0,4E0,5E0,2.7E1,1.34E2,1.9E1,1.8E1,4.4E1,1.2E1,3.17E2,1.34E2,2E0,9E0,3.5E1,1.7E1,1.5E1,3.8E1,1.4E1,1.09E2,4E0,1E0,1.9E1,8E0,1.03E2,3.1E1,1.3E1,3.1E1,3.07E2,1E1,1.14E2,2E1,1E0,1E0,3.3E1,2E0,5E0,1.2E1,2.9E1,9E0,6E0,8E0,1.9E1,9E1,2E0,2E0],"tree_param":{"num_deleted":"0","num_feature":"6","num_nodes":"75","size_leaf_vector":"1"}},{"base_weights":[-1.05868205E-1,1.0279554E0,-3.3068373E0,1.102754E0,-2.501829E-1,-2.36352E0,-4.45284E0,2.1797464E0,7.583077E-1,-3.1181924E0,8.2044E-1,-4.9607754E0,-7.6974744E-1,-1.1661239E-1,2.5327225E0,-2.0527587E0,1.3770604E0,-2.4303985E0,-3.2327235E-1,-2.9288588E0,3.8154678E0,4.247265E-2,-2.6377591E-1,-1.2572218E0,1.5137234E-1,2.7902567E0,4.0524483E-2,7.1731806E-1,-4.0578547E0,2.027517E0,5.586771E-1,-2.8615189E0,2.2925904E-1,7.0647174E-1,-1.8270265E-1,4.5877457E0,3.5169792E-1,-2.1438522E0,1.4953175E0,1.9953696E-1,1.1785773E-1,-5.836916E-2,1.465699E-1,-1.8483819E-1,2.6537183E-1,-3.9080897E-1,-9.075398E-2,7.062299E-2,1.349421E-1,-3.9076084E-1,9.349678E-2,-2.0477083E-1,-6.475414E-2,1.4589845E-1,-9.2913054E-2,2.3230745E-2,2.446311E-1,-1.3083471E-1,2.3142186E-1,-3.2687378E-3,-1.6611072E-1,-5.708313E-3,1.5809421E-1],"categories":[],"categories_nodes":[],"categories_segments":[],"categories_sizes":[],"default_left":[0,0,0,0,0,0,0,0,0,0,0,0,0,0,0,0,0,0,0,0,0,0,0,0,0,0,0,0,0,0,0,0,0,0,0,0,0,0,0,0,0,0,0,0,0,0,0,0,0,0,0,0,0,0,0,0,0,0,0,0,0,0,0],"id":15,"left_children":[1,3,5,7,-1,9,11,13,15,17,19,21,23,-1,25,27,29,31,-1,33,35,-1,-1,37,-1,39,41,43,45,47,49,51,-1,53,-1,55,57,59,61,-1,-1,-1,-1,-1,-1,-1,-1,-1,-1,-1,-1,-1,-1,-1,-1,-1,-1,-1,-1,-1,-1,-1,-1],"loss_changes":[3.5383708E3,3.3035004E2,2.651421E2,2.6247498E2,0E0,3.4376263E2,2.0944946E2,2.7983862E2,9.4381775E2,2.4904187E2,3.255941E2,1.8735425E2,3.1571692E1,0E0,1.0257898E2,5.472292E2,2.3521875E2,3.0650287E2,0E0,3.6853653E1,4.11864E1,0E0,0E0,3.7372536E1,0E0,6.59834E1,5.9292603E1,8.705889E2,4.6627032E2,9.817517E1,2.1887207E3,1.7251575E2,0E0,2.2438046E1,0E0,1.406839E1,6.2891357E1,2.6724003E1,1.1090231E1,0E0,0E0,0E0,0E0,0E0,0E0,0E0,0E0,0E0,0E0,0E0,0E0,0E0,0E0,0E0,0E0,0E0,0E0,0E0,0E0,0E0,0E0,0E0,0E0],"parents":[2147483647,0,0,1,1,2,2,3,3,5,5,6,6,7,7,8,8,9,9,10,10,11,11,12,12,14,14,15,15,16,16,17,17,19,19,20,20,23,23,25,25,26,26,27,27,28,28,29,29,30,30,31,31,33,33,35,35,36,36,37,37,38,38],"right_children":[2,4,6,8,-1,10,12,14,16,18,20,22,24,-1,26,28,30,32,-1,34,36,-1,-1,38,-1,40,42,44,46,48,50,52,-1,54,-1,56,58,60,62,-1,-1,-1,-1,-1,-1,-1,-1,-1,-1,-1,-1,-1,-1,-1,-1,-1,-1,-1,-1,-1,-1,-1,-1],"split_conditions":[-4.392857E-3,3.9E1,1.4E1,-8.7657146E-2,-2.501829E-1,7.083333E-1,9.4736844E-1,-5.443E-1,-6.985072E-2,5.688211E-1,1.445E-2,-8.4208144E-4,5.3E1,-1.1661239E-1,9.722222E-1,-7.947653E-2,-4.0699307E-2,1.65E-1,-3.2327235E-1,6E0,1.2E1,4.247265E-2,-2.6377591E-1,1.65E-1,1.5137234E-1,3.548387E-1,9E0,-8.4910154E-2,-7.75099E-2,-5.355306E-2,-3.907537E-2,2.5527472E-2,2.2925904E-1,-3.2020507E-3,-1.8270265E-1,5E0,7.692308E-1,1.25E-2,9.583333E-1,1.9953696E-1,1.1785773E-1,-5.836916E-2,1.465699E-1,-1.8483819E-1,2.6537183E-1,-3.9080897E-1,-9.075398E-2,7.062299E-2,1.349421E-1,-3.9076084E-1,9.349678E-2,-2.0477083E-1,-6.475414E-2,1.4589845E-1,-9.2913054E-2,2.3230745E-2,2.446311E-1,-1.3083471E-1,2.3142186E-1,-3.2687378E-3,-1.6611072E-1,-5.708313E-3,1.5809421E-1],"split_indices":[5,1,1,5,0,4,4,5,5,5,5,5,1,0,4,5,5,5,0,1,1,0,0,5,0,4,1,5,5,5,5,5,0,5,0,1,4,5,4,0,0,0,0,0,0,0,0,0,0,0,0,0,0,0,0,0,0,0,0,0,0,0,0],"split_type":[0,0,0,0,0,0,0,0,0,0,0,0,0,0,0,0,0,0,0,0,0,0,0,0,0,0,0,0,0,0,0,0,0,0,0,0,0,0,0,0,0,0,0,0,0,0,0,0,0,0,0,0,0,0,0,0,0,0,0,0,0,0,0],"sum_hessian":[9.73E2,7.19E2,2.54E2,7.11E2,8E0,1.41E2,1.13E2,1.71E2,5.4E2,1.14E2,2.7E1,9.9E1,1.4E1,1.2E1,1.59E2,9.7E1,4.43E2,9.6E1,1.8E1,1.2E1,1.5E1,5E0,9.4E1,1.3E1,1E0,1.44E2,1.5E1,4.1E1,5.6E1,2.46E2,1.97E2,9.1E1,5E0,2E0,1E1,1.2E1,3E0,1E1,3E0,3.6E1,1.08E2,1.1E1,4E0,2.1E1,2E1,2E1,3.6E1,1.3E2,1.16E2,2.6E1,1.71E2,5E1,4.1E1,1E0,1E0,1E0,1.1E1,2E0,1E0,4E0,6E0,2E0,1E0],"tree_param":{"num_deleted":"0","num_feature":"6","num_nodes":"63","size_leaf_vector":"1"}},{"base_weights":[1.9275915E-2,1.0230755E0,-3.24101E0,2.1067266E0,6.782116E-1,-3.5372941E0,1.6675485E0,-1.2251716E-1,2.5281932E0,-1.5757757E0,1.1192253E0,-2.077551E0,-4.36702E0,-1.6124624E0,3.6689394E0,2.7709765E0,4.7842127E-1,-4.1660348E-1,-2.9509208E-1,1.2996966E0,-3.3659773E0,-4.9890623E0,-1.491967E-2,-4.4612856E0,1.4248606E0,-1.5292092E-1,8.529663E-1,1.4336109E0,2.2738342E-1,2.3149262E-1,2.51447E0,-1.0716095E-1,1.06974185E-1,-1.9623436E0,3.7252085E0,2.0204422E0,4.8458797E-1,2.1900395E-1,-2.5187153E-1,-2.957667E0,-3.1315777E-1,9.859479E-1,-5.2676096E0,-3.6197405E0,-5.4056687E0,8.496304E-2,2.1901513E-2,3.9405824E-4,6.357842E-2,1.7243615E-1,-3.8766733E-1,-1.3641553E-1,1.4344992E-1,5.3527135E-2,-1.8067408E-1,6.2535584E-2,-3.688497E-1,2.3181716E-1,1.469237E-1,7.2459556E-2,1.3113597E-1,-3.821268E-1,8.065923E-2,9.072746E-2,-1.2566198E-1,-2.2097933E-1,1.0837545E-1,-1.149459E-1,1.7726928E-1,-2.9292744E-1,-1.164931E-1,-2.2186744E-1,1.9423008E-1,-2.800252E-1,-1.0127427E-1,-5.1725008E-2,2.2649957E-2],"categories":[],"categories_nodes":[],"categories_segments":[],"categories_sizes":[],"default_left":[0,0,0,0,0,0,0,0,0,0,0,0,0,0,0,0,0,0,0,0,0,0,0,0,0,0,0,0,0,0,0,0,0,0,0,0,0,0,0,0,0,0,0,0,0,0,0,0,0,0,0,0,0,0,0,0,0,0,0,0,0,0,0,0,0,0,0,0,0,0,0,0,0,0,0,0,0],"id":16,"left_children":[1,3,5,7,9,11,13,-1,15,17,19,21,23,25,27,29,31,33,-1,35,37,39,41,43,45,-1,47,49,-1,-1,51,53,-1,55,57,59,61,63,-1,65,-1,67,69,71,73,-1,-1,-1,-1,-1,75,-1,-1,-1,-1,-1,-1,-1,-1,-1,-1,-1,-1,-1,-1,-1,-1,-1,-1,-1,-1,-1,-1,-1,-1,-1,-1],"loss_changes":[3.2530806E3,2.8259235E2,3.4621167E2,3.5767438E2,5.7631824E2,2.585996E2,9.7820206E1,0E0,8.227942E1,4.7393353E2,3.9614868E2,4.9236627E2,8.279321E1,2.3998135E1,1.1158638E1,5.988037E1,1.8710354E1,4.938747E2,0E0,2.7278937E2,1.1495366E2,6.9474E1,2.627987E2,9.010742E1,6.803131E-2,0E0,1.0512414E0,1.6017275E1,0E0,0E0,2.568952E2,6.580949E1,0E0,9.8349036E2,1.4294739E0,8.117987E1,2.0302229E3,3.5076324E1,0E0,1.21968445E2,0E0,3.612618E2,2.386322E-1,4.8354413E2,3.0146606E1,0E0,0E0,0E0,0E0,0E0,2.0999396E0,0E0,0E0,0E0,0E0,0E0,0E0,0E0,0E0,0E0,0E0,0E0,0E0,0E0,0E0,0E0,0E0,0E0,0E0,0E0,0E0,0E0,0E0,0E0,0E0,0E0,0E0],"parents":[2147483647,0,0,1,1,2,2,3,3,4,4,5,5,6,6,8,8,9,9,10,10,11,11,12,12,13,13,14,14,15,15,16,16,17,17,19,19,20,20,21,21,22,22,23,23,24,24,26,26,27,27,30,30,31,31,33,33,34,34,35,35,36,36,37,37,39,39,41,41,42,42,43,43,44,44,50,50],"right_children":[2,4,6,8,10,12,14,-1,16,18,20,22,24,26,28,30,32,34,-1,36,38,40,42,44,46,-1,48,50,-1,-1,52,54,-1,56,58,60,62,64,-1,66,-1,68,70,72,74,-1,-1,-1,-1,-1,76,-1,-1,-1,-1,-1,-1,-1,-1,-1,-1,-1,-1,-1,-1,-1,-1,-1,-1,-1,-1,-1,-1,-1,-1,-1,-1],"split_conditions":[-8.4208144E-4,-8.7657146E-2,1E0,-5.443E-1,-6.985072E-2,1.4E1,2.5527472E-2,-1.2251716E-1,9.583333E-1,-7.738029E-2,3.4E1,2.5E-1,5.3E1,4.1E1,3.2E1,-2.74E-1,9E0,-7.75099E-2,-2.9509208E-1,-4.0699307E-2,-4.0699307E-2,4E0,7.5519994E-2,3.6E1,1E1,-1.5292092E-1,4.5E-3,1.6E1,2.2738342E-1,2.3149262E-1,-1.9082858E-1,7E0,1.06974185E-1,-7.947653E-2,3E1,-5.355306E-2,-3.907537E-2,3.7E1,-2.5187153E-1,1.9354838E-1,-3.1315777E-1,1.9983625E-2,1.1E1,1.65E-1,9.4736844E-1,8.496304E-2,2.1901513E-2,3.9405824E-4,6.357842E-2,1.7243615E-1,1.7E1,-1.3641553E-1,1.4344992E-1,5.3527135E-2,-1.8067408E-1,6.2535584E-2,-3.688497E-1,2.3181716E-1,1.469237E-1,7.2459556E-2,1.3113597E-1,-3.821268E-1,8.065923E-2,9.072746E-2,-1.2566198E-1,-2.2097933E-1,1.0837545E-1,-1.149459E-1,1.7726928E-1,-2.9292744E-1,-1.164931E-1,-2.2186744E-1,1.9423008E-1,-2.800252E-1,-1.0127427E-1,-5.1725008E-2,2.2649957E-2],"split_indices":[5,5,4,5,5,0,5,0,4,5,1,4,0,0,0,5,0,5,0,5,5,0,5,0,1,0,5,0,0,0,5,0,0,5,0,5,5,0,0,4,0,5,0,5,4,0,0,0,0,0,0,0,0,0,0,0,0,0,0,0,0,0,0,0,0,0,0,0,0,0,0,0,0,0,0,0,0],"split_type":[0,0,0,0,0,0,0,0,0,0,0,0,0,0,0,0,0,0,0,0,0,0,0,0,0,0,0,0,0,0,0,0,0,0,0,0,0,0,0,0,0,0,0,0,0,0,0,0,0,0,0,0,0,0,0,0,0,0,0,0,0,0,0,0,0,0,0,0,0,0,0,0,0,0,0,0,0],"sum_hessian":[9.92E2,7.59E2,2.33E2,1.82E2,5.77E2,2.2E2,1.3E1,1.5E1,1.67E2,9.4E1,4.83E2,8.1E1,1.39E2,5E0,8E0,1.49E2,1.8E1,7.5E1,1.9E1,4.65E2,1.8E1,3.3E1,4.8E1,1.37E2,2E0,3E0,2E0,3E0,5E0,1.6E1,1.33E2,1.4E1,4E0,5.5E1,2E1,2.46E2,2.19E2,6E0,1.2E1,1.4E1,1.9E1,4.1E1,7E0,7.5E1,6.2E1,1E0,1E0,1E0,1E0,1E0,2E0,8E0,1.25E2,1.1E1,3E0,3.5E1,2E1,7E0,1.3E1,1.28E2,1.18E2,2.6E1,1.93E2,4E0,2E0,1.1E1,3E0,1.8E1,2.3E1,5E0,2E0,6.8E1,7E0,5.8E1,4E0,1E0,1E0],"tree_param":{"num_deleted":"0","num_feature":"6","num_nodes":"77","size_leaf_vector":"1"}},{"base_weights":[6.755526E-2,1.0471872E0,-3.0976985E0,2.018704E0,7.356285E-1,-8.4766334E-1,-3.571293E0,-1.2026339E-1,2.4280186E0,-1.7023797E0,1.1805813E0,-2.3980193E-1,1.0876786E0,-3.8548565E0,6.514992E-1,-1.1895815E0,2.6890578E0,-3.0890155E-1,-2.843813E-1,1.981277E0,3.4479436E-1,-1.6019125E-1,2.5987854E0,-3.153343E0,-5.1504498E0,-1.5299464E0,2.7398736E0,1.6941692E0,-2.1778469E-1,7.176473E-1,3.1300988E0,-1.6616983E0,3.4660285E0,1.9181375E-1,1.8017321E0,-6.4526496E0,1.4650289E0,3.502343E0,-2.1455967E-1,-3.6507404E0,3.3868604E0,-5.3632503E0,-7.240257E-1,-2.6409104E0,8.3164215E-1,1.3977699E0,1.6985045E-1,-1.9054699E-1,1.623422E-1,1.6302757E-1,-2.3471081E-1,1.882727E-1,1.3821922E-1,3.8497686E-2,-3.4385404E-1,2.0530735E-1,1.2716596E-1,-3.1988692E-1,9.883563E-2,-3.602852E-1,-2.3409465E-1,9.323629E-2,-1.2016554E-2,9.174743E-2,2.887033E-1,-2.2032228E-1,-4.908104E-2,2.3410035E-2,2.0769386E-1,-2.7183267E-1,-2.7646828E-2,1.2864812E-2,-9.1699794E-2,-1.4718628E-1,-3.5741236E-2,3.8414003E-4,6.198902E-2,1.6812515E-1,-1.8898774E-2],"categories":[],"categories_nodes":[],"categories_segments":[],"categories_sizes":[],"default_left":[0,0,0,0,0,0,0,0,0,0,0,0,0,0,0,0,0,0,0,0,0,0,0,0,0,0,0,0,0,0,0,0,0,0,0,0,0,0,0,0,0,0,0,0,0,0,0,0,0,0,0,0,0,0,0,0,0,0,0,0,0,0,0,0,0,0,0,0,0,0,0,0,0,0,0,0,0,0,0],"id":17,"left_children":[1,3,5,7,9,11,13,-1,15,17,19,-1,21,23,25,27,29,31,-1,33,35,-1,37,39,41,43,45,47,-1,49,51,53,55,-1,57,59,61,63,-1,65,67,69,71,73,75,77,-1,-1,-1,-1,-1,-1,-1,-1,-1,-1,-1,-1,-1,-1,-1,-1,-1,-1,-1,-1,-1,-1,-1,-1,-1,-1,-1,-1,-1,-1,-1,-1,-1],"loss_changes":[3.0699192E3,2.2734442E2,2.4632422E2,3.3721564E2,6.246844E2,3.261577E2,2.3361548E2,0E0,1.6184729E2,4.9249152E2,3.245534E2,0E0,1.9638876E2,1.4826514E2,6.341564E1,1.1694263E2,1.3426099E2,3.4790927E2,0E0,7.568579E1,1.8293741E3,0E0,1.5199008E2,4.02734E2,5.4517456E1,2.056177E1,1.4253693E0,7.220703E1,0E0,4.281613E2,1.9332764E1,6.3939484E2,1.8832397E-1,0E0,3.3976886E2,1.1601807E1,1.4086328E2,6.516205E1,0E0,2.2158618E2,1.820311E1,1.7826294E1,4.8288326E0,8.1199646E-1,9.993429E-1,1.5226408E1,0E0,0E0,0E0,0E0,0E0,0E0,0E0,0E0,0E0,0E0,0E0,0E0,0E0,0E0,0E0,0E0,0E0,0E0,0E0,0E0,0E0,0E0,0E0,0E0,0E0,0E0,0E0,0E0,0E0,0E0,0E0,0E0,0E0],"parents":[2147483647,0,0,1,1,2,2,3,3,4,4,5,5,6,6,8,8,9,9,10,10,12,12,13,13,14,14,15,15,16,16,17,17,19,19,20,20,22,22,23,23,24,24,25,25,26,26,27,27,29,29,30,30,31,31,32,32,34,34,35,35,36,36,37,37,39,39,40,40,41,41,42,42,43,43,44,44,45,45],"right_children":[2,4,6,8,10,12,14,-1,16,18,20,-1,22,24,26,28,30,32,-1,34,36,-1,38,40,42,44,46,48,-1,50,52,54,56,-1,58,60,62,64,-1,66,68,70,72,74,76,78,-1,-1,-1,-1,-1,-1,-1,-1,-1,-1,-1,-1,-1,-1,-1,-1,-1,-1,-1,-1,-1,-1,-1,-1,-1,-1,-1,-1,-1,-1,-1,-1,-1],"split_conditions":[-8.4208144E-4,-8.7657146E-2,7E0,-5.443E-1,-6.985072E-2,1.9354838E-1,9.6428573E-1,-1.2026339E-1,1E0,-7.738029E-2,-4.0699307E-2,-2.3980193E-1,1.445E-2,3.6E1,2.5527472E-2,-1.4613333E-1,-1.9082858E-1,-7.75099E-2,-2.843813E-1,-6.946429E-2,-3.907537E-2,-1.6019125E-1,7.5519994E-2,1.65E-1,5.2E1,5.2E1,3.2E1,-5.097E-1,-2.1778469E-1,-2.74E-1,4.0625E-1,-7.947653E-2,3.6E1,1.9181375E-1,-6.7264825E-2,3.5E1,-1.92E-2,3.846154E-1,-2.1455967E-1,6.5625E-1,2.3539285E-1,9.4736844E-1,9.583333E-1,4.1E1,4.5E-3,1.6E1,1.6985045E-1,-1.9054699E-1,1.623422E-1,1.6302757E-1,-2.3471081E-1,1.882727E-1,1.3821922E-1,3.8497686E-2,-3.4385404E-1,2.0530735E-1,1.2716596E-1,-3.1988692E-1,9.883563E-2,-3.602852E-1,-2.3409465E-1,9.323629E-2,-1.2016554E-2,9.174743E-2,2.887033E-1,-2.2032228E-1,-4.908104E-2,2.3410035E-2,2.0769386E-1,-2.7183267E-1,-2.7646828E-2,1.2864812E-2,-9.1699794E-2,-1.4718628E-1,-3.5741236E-2,3.8414003E-4,6.198902E-2,1.6812515E-1,-1.8898774E-2],"split_indices":[5,5,0,5,5,4,4,0,3,5,5,0,5,0,5,5,5,5,0,5,5,0,5,5,0,0,0,5,0,5,4,5,0,0,5,0,5,4,0,4,5,4,4,0,5,0,0,0,0,0,0,0,0,0,0,0,0,0,0,0,0,0,0,0,0,0,0,0,0,0,0,0,0,0,0,0,0,0,0],"split_type":[0,0,0,0,0,0,0,0,0,0,0,0,0,0,0,0,0,0,0,0,0,0,0,0,0,0,0,0,0,0,0,0,0,0,0,0,0,0,0,0,0,0,0,0,0,0,0,0,0,0,0,0,0,0,0,0,0,0,0,0,0,0,0,0,0,0,0,0,0,0,0,0,0,0,0,0,0,0,0],"sum_hessian":[9.88E2,7.55E2,2.33E2,1.82E2,5.73E2,4.1E1,1.92E2,1.5E1,1.67E2,8.8E1,4.85E2,1.3E1,2.8E1,1.8E2,1.2E1,1.1E1,1.56E2,6.6E1,2.2E1,2.47E2,2.38E2,7E0,2.1E1,1.19E2,6.1E1,6E0,6E0,6E0,5E0,2.9E1,1.27E2,4.9E1,1.7E1,2E1,2.27E2,3.3E1,2.05E2,1.9E1,2E0,1.11E2,8E0,5.8E1,3E0,4E0,2E0,3E0,3E0,1E0,5E0,2E1,9E0,4.3E1,8.4E1,3.4E1,1.5E1,8E0,9E0,4E0,2.23E2,2.1E1,1.2E1,1.66E2,3.9E1,1.2E1,7E0,8.6E1,2.5E1,2E0,6E0,5.7E1,1E0,2E0,1E0,3E0,1E0,1E0,1E0,1E0,2E0],"tree_param":{"num_deleted":"0","num_feature":"6","num_nodes":"79","size_leaf_vector":"1"}},{"base_weights":[1.2114587E-1,1.0748507E0,-2.5973787E0,1.9760901E0,7.735865E-1,-1.109393E0,-3.2059524E0,-2.5177062E0,2.4458058E0,-1.626033E0,1.2518468E0,-3.7892795E0,8.805101E-1,-3.8024516E0,-1.0327363E0,-7.103653E-1,-2.1230589E-1,-9.762748E-2,2.7070494E0,1.0578761E0,-3.1198144E0,2.3691006E0,8.948291E-1,-4.864536E0,-2.9432025E0,2.2652328E0,-2.9034933E-1,4.9273826E-2,-4.0542836E0,-2.0627062E0,2.3664412E0,-3.7914772E0,1.564521E-1,1.4027168E0,2.9751303E0,-3.4942217E0,2.4177721E-1,-4.462556E0,1.3115162E-1,2.6387913E0,1.074784E0,-2.5112098E-1,1.3597338E0,-2.523478E-1,-6.6887476E-2,1.4850579E-1,-3.3873742E0,7.087021E-1,4.6046667E0,-3.3963802E0,-2.683831E-1,2.2243157E-1,-2.4162536E0,5.937271E-1,3.4492962E0,-9.662628E-2,-2.503127E-1,1.8601261E-1,-2.0803617E-1,1.5278965E-1,6.7648314E-2,1.029131E-1,-2.0008023E-1,-6.3962825E-2,-3.218002E-1,1.821649E-1,1.18968904E-1,-2.61712E-1,1.00718915E-1,1.2121021E-1,3.684778E-2,-2.260624E-1,-1.2145193E-1,-1.2649684E-1,1.2430713E-1,1.1716022E-1,2.4873827E-1,-1.9520983E-1,1.7363963E-1,1.2093468E-1,-1.3290209E-1,-1.9555919E-2,6.9033176E-2,2.2556115E-2,1.9793533E-1],"categories":[],"categories_nodes":[],"categories_segments":[],"categories_sizes":[],"default_left":[0,0,0,0,0,0,0,0,0,0,0,0,0,0,0,0,0,0,0,0,0,0,0,0,0,0,0,0,0,0,0,0,0,0,0,0,0,0,0,0,0,0,0,0,0,0,0,0,0,0,0,0,0,0,0,0,0,0,0,0,0,0,0,0,0,0,0,0,0,0,0,0,0,0,0,0,0,0,0,0,0,0,0,0,0],"id":18,"left_children":[1,3,5,7,9,11,13,15,17,19,21,23,25,27,29,31,-1,-1,33,35,37,39,41,43,45,47,-1,-1,49,51,53,55,-1,57,59,61,-1,63,-1,65,67,-1,69,-1,-1,-1,71,73,75,77,-1,-1,79,81,83,-1,-1,-1,-1,-1,-1,-1,-1,-1,-1,-1,-1,-1,-1,-1,-1,-1,-1,-1,-1,-1,-1,-1,-1,-1,-1,-1,-1,-1,-1],"loss_changes":[2.595462E3,1.9966107E2,2.3188599E2,3.9665704E2,6.412726E2,4.1395547E2,2.3459656E2,5.3212616E1,1.9832477E2,3.761535E2,1.8335901E2,1.5704437E1,4.2986902E2,1.7762378E2,1.4842435E2,1.3016014E2,0E0,0E0,5.142383E1,6.0157117E2,4.7437494E2,3.6259155E1,9.806677E2,1.6120605E0,6.521799E1,1.351099E2,0E0,0E0,1.00147705E2,8.441513E1,1.7147984E1,3.8745575E0,0E0,3.8938956E2,1.3006714E1,5.331215E1,0E0,2.995885E2,0E0,1.530481E1,1.350301E2,0E0,2.1631708E2,0E0,0E0,0E0,1.0750351E1,1.444455E2,8.97583E-1,3.4145654E2,0E0,0E0,4.2669006E1,4.4150567E0,7.377945E0,0E0,0E0,0E0,0E0,0E0,0E0,0E0,0E0,0E0,0E0,0E0,0E0,0E0,0E0,0E0,0E0,0E0,0E0,0E0,0E0,0E0,0E0,0E0,0E0,0E0,0E0,0E0,0E0,0E0,0E0],"parents":[2147483647,0,0,1,1,2,2,3,3,4,4,5,5,6,6,7,7,8,8,9,9,10,10,11,11,12,12,13,13,14,14,15,15,18,18,19,19,20,20,21,21,22,22,23,23,24,24,25,25,28,28,29,29,30,30,31,31,33,33,34,34,35,35,37,37,39,39,40,40,42,42,46,46,47,47,48,48,49,49,52,52,53,53,54,54],"right_children":[2,4,6,8,10,12,14,16,18,20,22,24,26,28,30,32,-1,-1,34,36,38,40,42,44,46,48,-1,-1,50,52,54,56,-1,58,60,62,-1,64,-1,66,68,-1,70,-1,-1,-1,72,74,76,78,-1,-1,80,82,84,-1,-1,-1,-1,-1,-1,-1,-1,-1,-1,-1,-1,-1,-1,-1,-1,-1,-1,-1,-1,-1,-1,-1,-1,-1,-1,-1,-1,-1,-1],"split_conditions":[-4.392857E-3,-8.7657146E-2,1E1,1E0,-6.985072E-2,1.445E-2,8.666667E-1,-1.4613333E-1,-5.443E-1,-7.947653E-2,-5.632649E-2,2.580645E-1,7.5519994E-2,-8.4208144E-4,1.65E-1,-5.097E-1,-2.1230589E-1,-9.762748E-2,-1.9082858E-1,-8.4910154E-2,3.1E1,8.75E-1,-5.355306E-2,1.25E-2,3E0,4.722222E-1,-2.9034933E-1,4.9273826E-2,3.6E1,8.7096775E-1,9.583333E-1,-6.47E-1,1.564521E-1,-2.74E-1,4.1E1,7.692308E-2,2.4177721E-1,3.478261E-1,1.3115162E-1,1.9444445E-1,9E0,-2.5112098E-1,-4.0699307E-2,-2.523478E-1,-6.6887476E-2,1.4850579E-1,-3.7E-3,1.9983625E-2,5.16129E-1,1.65E-1,-2.683831E-1,2.2243157E-1,1.2E1,5.3E1,3.2E1,-9.662628E-2,-2.503127E-1,1.8601261E-1,-2.0803617E-1,1.5278965E-1,6.7648314E-2,1.029131E-1,-2.0008023E-1,-6.3962825E-2,-3.218002E-1,1.821649E-1,1.18968904E-1,-2.61712E-1,1.00718915E-1,1.2121021E-1,3.684778E-2,-2.260624E-1,-1.2145193E-1,-1.2649684E-1,1.2430713E-1,1.1716022E-1,2.4873827E-1,-1.9520983E-1,1.7363963E-1,1.2093468E-1,-1.3290209E-1,-1.9555919E-2,6.9033176E-2,2.2556115E-2,1.9793533E-1],"split_indices":[5,5,0,3,5,5,4,5,5,5,5,4,5,5,5,5,0,0,5,5,0,4,5,5,0,4,0,0,0,4,4,5,0,5,0,4,0,4,0,4,0,0,5,0,0,0,5,5,4,5,0,0,0,0,0,0,0,0,0,0,0,0,0,0,0,0,0,0,0,0,0,0,0,0,0,0,0,0,0,0,0,0,0,0,0],"split_type":[0,0,0,0,0,0,0,0,0,0,0,0,0,0,0,0,0,0,0,0,0,0,0,0,0,0,0,0,0,0,0,0,0,0,0,0,0,0,0,0,0,0,0,0,0,0,0,0,0,0,0,0,0,0,0,0,0,0,0,0,0,0,0,0,0,0,0,0,0,0,0,0,0,0,0,0,0,0,0,0,0,0,0,0,0],"sum_hessian":[9.99E2,7.4E2,2.59E2,1.84E2,5.56E2,7.6E1,1.83E2,1.7E1,1.67E2,9.2E1,4.64E2,3.2E1,4.4E1,1.43E2,4E1,9E0,8E0,9E0,1.58E2,3.3E1,5.9E1,1.11E2,3.53E2,1.2E1,2E1,3.7E1,7E0,7E0,1.36E2,3.1E1,9E0,5E0,4E0,2.8E1,1.3E2,1.5E1,1.8E1,4.8E1,1.1E1,9.1E1,2E1,2.5E1,3.28E2,1.1E1,1E0,1E0,1.9E1,2.3E1,1.4E1,9.3E1,4.3E1,1E0,3E1,4E0,5E0,3E0,2E0,2E1,8E0,1.23E2,7E0,1E0,1.4E1,1.9E1,2.9E1,1.6E1,7.5E1,2E0,1.8E1,1.2E2,2.08E2,7E0,1.2E1,8E0,1.5E1,3E0,1.1E1,8.7E1,6E0,1E0,2.9E1,2E0,2E0,1E0,4E0],"tree_param":{"num_deleted":"0","num_feature":"6","num_nodes":"85","size_leaf_vector":"1"}},{"base_weights":[-3.8218025E-2,1.918954E-1,-3.2186356E0,2.3636994E0,8.005755E-2,-4.0474963E0,-2.0162456E-2,2.6150997E0,-9.2977905E-1,-2.9335759E0,1.1054531E-1,-2.527687E0,-2.3104489E-1,8.9637E-2,-1.4279573E0,2.1972387E0,3.248624E0,-1.2818603E-1,4.6944174E-1,-2.490332E-1,1.4104106E-1,2.6284654E0,8.46388E-2,-1.9959691E-1,8.924515E-2,-2.488519E0,5.198746E-1,2.3551812E0,-5.5628777E-2,2.4988948E-1,2.3948505E0,-6.039753E-2,9.5605664E-2,5.498703E-1,4.1813674E0,2.067996E-1,-3.9761695E-1,-1.4583893E-1,-5.4399997E-2,4.497274E-2,-1.5471649E-2,1.3384204E-1,8.073609E-2,3.7228163E-2,1.5634619E-1,8.320713E-2,-9.768047E-2,2.3642425E-1,4.9822427E-2,1.7409693E-2,-1.0406222E-1,-2.380371E-1,3.141014E-2],"categories":[],"categories_nodes":[],"categories_segments":[],"categories_sizes":[],"default_left":[0,0,0,0,0,0,0,0,0,0,0,0,0,0,0,0,0,0,0,0,0,0,0,0,0,0,0,0,0,0,0,0,0,0,0,0,0,0,0,0,0,0,0,0,0,0,0,0,0,0,0,0,0],"id":19,"left_children":[1,3,5,7,9,11,13,15,17,19,21,23,-1,-1,25,27,29,-1,31,-1,-1,33,35,-1,-1,37,39,41,-1,-1,43,-1,-1,45,47,49,51,-1,-1,-1,-1,-1,-1,-1,-1,-1,-1,-1,-1,-1,-1,-1,-1],"loss_changes":[7.375975E2,2.2812726E2,1.8019238E2,4.0518616E1,8.255595E1,3.5378723E1,4.0842876E1,4.245178E0,1.0348497E1,1.20067375E2,5.763702E1,1.1447538E2,0E0,0E0,1.9885883E1,1.7780365E1,1.04319E1,0E0,9.569515E0,0E0,0E0,2.6751488E1,5.186653E1,0E0,0E0,4.2525864E-1,1.5374761E0,2.3465729E0,0E0,0E0,1.216938E1,0E0,0E0,1.7198875E1,4.000931E0,2.2783313E2,7.996794E2,0E0,0E0,0E0,0E0,0E0,0E0,0E0,0E0,0E0,0E0,0E0,0E0,0E0,0E0,0E0,0E0],"parents":[2147483647,0,0,1,1,2,2,3,3,4,4,5,5,6,6,7,7,8,8,9,9,10,10,11,11,14,14,15,15,16,16,18,18,21,21,22,22,25,25,26,26,27,27,30,30,33,33,34,34,35,35,36,36],"right_children":[2,4,6,8,10,12,14,16,18,20,22,24,-1,-1,26,28,30,-1,32,-1,-1,34,36,-1,-1,38,40,42,-1,-1,44,-1,-1,46,48,50,52,-1,-1,-1,-1,-1,-1,-1,-1,-1,-1,-1,-1,-1,-1,-1,-1],"split_conditions":[3.3E1,3E0,9.4736844E-1,3.4375E-1,8.3333336E-2,3.8E1,4.1E1,1.5625E-1,3.846154E-1,5E0,9.615385E-2,7.6E-1,-2.3104489E-1,8.9637E-2,5.2E1,1.4814815E-1,2.0408164E-1,-1.2818603E-1,3E0,-2.490332E-1,1.4104106E-1,1.2E1,2.3E1,-1.9959691E-1,8.924515E-2,4.8E1,5.3E1,1.0526316E-1,-5.5628777E-2,2.4988948E-1,2.9032257E-1,-6.039753E-2,9.5605664E-2,1E1,2.2E1,4.1E1,6.3461536E-1,-1.4583893E-1,-5.4399997E-2,4.497274E-2,-1.5471649E-2,1.3384204E-1,8.073609E-2,3.7228163E-2,1.5634619E-1,8.320713E-2,-9.768047E-2,2.3642425E-1,4.9822427E-2,1.7409693E-2,-1.0406222E-1,-2.380371E-1,3.141014E-2],"split_indices":[1,0,4,4,4,0,0,4,4,0,4,4,0,0,0,4,4,0,1,0,0,0,1,0,0,0,0,4,0,0,4,0,0,0,0,0,4,0,0,0,0,0,0,0,0,0,0,0,0,0,0,0,0],"split_type":[0,0,0,0,0,0,0,0,0,0,0,0,0,0,0,0,0,0,0,0,0,0,0,0,0,0,0,0,0,0,0,0,0,0,0,0,0,0,0,0,0,0,0,0,0,0,0,0,0,0,0,0,0],"sum_hessian":[1.006E3,9.39E2,6.7E1,4.5E1,8.94E2,5.3E1,1.4E1,4.2E1,3E0,8E0,8.86E2,1.6E1,3.7E1,6E0,8E0,2.8E1,1.4E1,1E0,2E0,6E0,2E0,8E0,8.78E2,1.2E1,4E0,5E0,3E0,2.7E1,1E0,3E0,1.1E1,1E0,1E0,4E0,4E0,7.01E2,1.77E2,3E0,2E0,2E0,1E0,1.7E1,1E1,4E0,7E0,3E0,1E0,3E0,1E0,6.61E2,4E1,3.3E1,1.44E2],"tree_param":{"num_deleted":"0","num_feature":"6","num_nodes":"53","size_leaf_vector":"1"}},{"base_weights":[3.2532148E-3,9.0270114E-1,-2.5646486E0,6.514301E-1,2.0596957E0,-1.6747104E0,-3.2935154E0,1.143242E0,-2.3927972E0,2.3964581E0,4.3037987E-1,-2.8958688E0,7.4888444E-1,-3.7419653E0,-3.4845084E-1,1.5976509E0,2.8473854E-1,-6.0770507E0,1.3300411E-1,2.9529686E0,1.6695863E0,-2.776478E-1,9.5234744E-2,-1.786613E0,-4.685075E0,-2.332841E0,2.4332178E0,3.782158E-2,-3.8982155E0,-1.0622213E0,2.7721863E0,2.6607502E0,1.2586514E0,-1.4512591E0,7.433723E-1,-3.3687666E-1,-2.1248324E-1,1.1455331E-1,-3.6257288E-1,2.2400322E0,3.3858404E0,1.0951278E-1,1.2494649E0,-3.1209226E0,6.2490445E-1,-2.7849162E-1,-3.2760777E0,1.1114502E-1,-1.7829743E-1,3.5327744E0,-2.0040271E0,-2.456929E-1,-3.593119E0,-1.4820261E0,1.4136639E-1,2.1908188E-2,1.7020696E-1,3.3910114E-3,1.4130472E-1,-1.3679594E-2,1.04436114E-1,-2.3467785E-2,-2.3360601E-1,1.1374704E-1,1.1307626E-2,1.24514036E-1,6.8284415E-2,2.1004558E-1,9.8234E-2,3.2267053E-2,6.868034E-2,-7.217912E-2,-2.0695074E-1,2.6020187E-1,-9.44426E-2,-2.6079814E-3,-2.530674E-1,9.015389E-2,-1.0909068E-1,2.134002E-1,-4.213791E-2,-2.2758113E-1,1.0303879E-1,-5.1364042E-2,-1.8916921E-1,-2.9407502E-3,-1.0617967E-1],"categories":[],"categories_nodes":[],"categories_segments":[],"categories_sizes":[],"default_left":[0,0,0,0,0,0,0,0,0,0,0,0,0,0,0,0,0,0,0,0,0,0,0,0,0,0,0,0,0,0,0,0,0,0,0,0,0,0,0,0,0,0,0,0,0,0,0,0,0,0,0,0,0,0,0,0,0,0,0,0,0,0,0,0,0,0,0,0,0,0,0,0,0,0,0,0,0,0,0,0,0,0,0,0,0,0,0],"id":20,"left_children":[1,3,5,7,9,11,13,15,17,19,21,23,25,27,29,31,33,35,37,39,41,-1,-1,43,45,47,49,-1,51,53,55,57,59,61,63,-1,-1,-1,-1,65,67,-1,69,71,73,-1,75,77,-1,79,81,-1,83,85,-1,-1,-1,-1,-1,-1,-1,-1,-1,-1,-1,-1,-1,-1,-1,-1,-1,-1,-1,-1,-1,-1,-1,-1,-1,-1,-1,-1,-1,-1,-1,-1,-1],"loss_changes":[2.3327964E3,2.1611627E2,1.6442981E2,9.250028E2,7.19447E1,3.5731985E2,1.875581E2,2.066944E2,8.010978E2,3.95661E1,2.2228838E2,1.504046E2,2.1849306E2,9.010535E1,4.7493046E1,1.2170642E2,1.4837346E2,1.3611328E1,8.452922E2,1.1240845E1,8.200577E0,0E0,0E0,1.6605353E2,1.9151428E1,4.5601807E1,1.3881287E2,0E0,1.9528198E1,3.1948647E1,4.4084015E0,3.5392517E1,3.376172E2,1.2114751E2,1.1593266E2,0E0,0E0,0E0,0E0,2.2879333E0,3.344702E1,0E0,1.3634682E0,5.0378662E1,2.2853534E2,0E0,8.03139E1,2.7211168E1,0E0,7.437134E1,7.15127E1,0E0,4.2979614E1,1.4484474E1,0E0,0E0,0E0,0E0,0E0,0E0,0E0,0E0,0E0,0E0,0E0,0E0,0E0,0E0,0E0,0E0,0E0,0E0,0E0,0E0,0E0,0E0,0E0,0E0,0E0,0E0,0E0,0E0,0E0,0E0,0E0,0E0,0E0],"parents":[2147483647,0,0,1,1,2,2,3,3,4,4,5,5,6,6,7,7,8,8,9,9,10,10,11,11,12,12,13,13,14,14,15,15,16,16,17,17,18,18,19,19,20,20,23,23,24,24,25,25,26,26,28,28,29,29,30,30,31,31,32,32,33,33,34,34,39,39,40,40,42,42,43,43,44,44,46,46,47,47,49,49,50,50,52,52,53,53],"right_children":[2,4,6,8,10,12,14,16,18,20,22,24,26,28,30,32,34,36,38,40,42,-1,-1,44,46,48,50,-1,52,54,56,58,60,62,64,-1,-1,-1,-1,66,68,-1,70,72,74,-1,76,78,-1,80,82,-1,84,86,-1,-1,-1,-1,-1,-1,-1,-1,-1,-1,-1,-1,-1,-1,-1,-1,-1,-1,-1,-1,-1,-1,-1,-1,-1,-1,-1,-1,-1,-1,-1,-1,-1],"split_conditions":[-4.392857E-3,-3.4169566E-2,1.21E2,-4.0699307E-2,-1.92E-2,5.3125E-1,9.4736844E-1,7.1428573E-1,-3.907537E-2,1.96E2,-1.5222223E-2,7.5519994E-2,1.445E-2,-8.4208144E-4,1.65E-1,-9.3828574E-2,8.1E1,1.225E3,-3.578901E-2,-2.7216783E-2,-3.0516483E-2,-2.776478E-1,9.5234744E-2,2.5527472E-2,3.2142857E-1,3.6E1,5.688211E-1,3.782158E-2,4.2857143E-1,2.916E3,9.583333E-1,1E0,-6.985072E-2,-1.0357143E-1,-8.7657146E-2,-3.3687666E-1,-2.1248324E-1,1.1455331E-1,-3.6257288E-1,-3.0516483E-2,-1.9862903E-2,1.0951278E-1,-2.8843952E-2,1.6E1,4.5185715E-2,-2.7849162E-1,2.5E1,-3.2020507E-3,-1.7829743E-1,1E2,6.4E1,-2.456929E-1,1.44E2,1.25E-2,1.4136639E-1,2.1908188E-2,1.7020696E-1,3.3910114E-3,1.4130472E-1,-1.3679594E-2,1.04436114E-1,-2.3467785E-2,-2.3360601E-1,1.1374704E-1,1.1307626E-2,1.24514036E-1,6.8284415E-2,2.1004558E-1,9.8234E-2,3.2267053E-2,6.868034E-2,-7.217912E-2,-2.0695074E-1,2.6020187E-1,-9.44426E-2,-2.6079814E-3,-2.530674E-1,9.015389E-2,-1.0909068E-1,2.134002E-1,-4.213791E-2,-2.2758113E-1,1.0303879E-1,-5.1364042E-2,-1.8916921E-1,-2.9407502E-3,-1.0617967E-1],"split_indices":[5,5,2,5,5,4,4,4,5,2,5,5,5,5,5,5,2,2,5,5,5,0,0,5,4,2,5,0,4,2,4,3,5,5,5,0,0,0,0,5,5,0,5,2,5,0,2,5,0,2,2,0,2,5,0,0,0,0,0,0,0,0,0,0,0,0,0,0,0,0,0,0,0,0,0,0,0,0,0,0,0,0,0,0,0,0,0],"split_type":[0,0,0,0,0,0,0,0,0,0,0,0,0,0,0,0,0,0,0,0,0,0,0,0,0,0,0,0,0,0,0,0,0,0,0,0,0,0,0,0,0,0,0,0,0,0,0,0,0,0,0,0,0,0,0,0,0,0,0,0,0,0,0,0,0,0,0,0,0,0,0,0,0,0,0,0,0,0,0,0,0,0,0,0,0,0,0],"sum_hessian":[1.008E3,7.47E2,2.61E2,6.15E2,1.32E2,1.19E2,1.42E2,5.3E2,8.5E1,1.09E2,2.3E1,7.9E1,4E1,1.23E2,1.9E1,3.46E2,1.84E2,3.4E1,5.1E1,6E1,4.9E1,4E0,1.9E1,5E1,2.9E1,1.4E1,2.6E1,4E0,1.19E2,1.6E1,3E0,8.2E1,2.64E2,3.8E1,1.46E2,2.3E1,1.1E1,4E1,1.1E1,2.5E1,3.5E1,2E1,2.9E1,3.2E1,1.8E1,1.6E1,1.3E1,5E0,9E0,2.1E1,5E0,2.4E1,9.5E1,1.5E1,1E0,1E0,2E0,5E0,7.7E1,9.3E1,1.71E2,3E1,8E0,3.6E1,1.1E2,1.8E1,7E0,2.1E1,1.4E1,6E0,2.3E1,1.3E1,1.9E1,6E0,1.2E1,5E0,8E0,3E0,2E0,1.8E1,3E0,3E0,2E0,7E0,8.8E1,5E0,1E1],"tree_param":{"num_deleted":"0","num_feature":"6","num_nodes":"87","size_leaf_vector":"1"}},{"base_weights":[-2.174812E-2,2.1395771E-1,-3.1820195E0,3.193257E-1,-2.1843277E-1,-3.8955462E0,-4.9632618E-1,4.491934E-1,-1.7630686E0,-3.6627338E0,6.136571E-1,-1.4069805E0,-2.0095967E-1,8.2196936E-2,-1.7308525E0,3.2901937E-1,1.873399E0,-2.902786E0,1.7127519E0,-2.2478418E-1,-2.672574E0,2.5501567E-1,2.3514082E0,-1.2040939E-1,3.991604E-2,-2.5357573E0,1.3783227E-1,3.9388254E-1,-7.036595E-1,-2.7401276E0,2.3149455E0,-2.4532354E-1,-1.6195955E0,7.3722947E-1,1.3679664E-1,1.0951599E-1,-2.1092117E-1,7.366596E-1,-3.101383E0,1.20545916E-1,2.4567032E-2,-1.6396149E-1,-1.2851334E0,3.1116372E-2,8.007037E-3,-7.5561255E-2,2.9075926E-2,5.038147E-2,-1.9644871E-1,-4.9082756E-2,1.3605502E-1,6.1444856E-2,-1.2932777E-1,-2.4412919E-2,5.1142693E-2,-2.1295866E-3,4.792271E-2,8.877411E-2,-1.9941227E-1,-8.164396E-2,2.6462555E-3],"categories":[],"categories_nodes":[],"categories_segments":[],"categories_sizes":[],"default_left":[0,0,0,0,0,0,0,0,0,0,0,0,0,0,0,0,0,0,0,0,0,0,0,0,0,0,0,0,0,0,0,0,0,0,0,0,0,0,0,0,0,0,0,0,0,0,0,0,0,0,0,0,0,0,0,0,0,0,0,0,0],"id":21,"left_children":[1,3,5,7,9,11,13,15,17,19,21,23,-1,-1,25,27,29,31,33,-1,35,37,39,-1,-1,41,-1,43,45,47,49,-1,51,53,-1,-1,-1,55,57,-1,-1,-1,59,-1,-1,-1,-1,-1,-1,-1,-1,-1,-1,-1,-1,-1,-1,-1,-1,-1,-1],"loss_changes":[7.0833044E2,4.039044E1,1.2454321E2,1.9334225E2,5.0092612E2,1.0345703E1,4.247862E1,1.14226944E2,1.7135278E2,1.602655E1,8.727573E1,1.0754362E1,0E0,0E0,4.3110268E1,4.180652E1,1.12271774E2,7.432901E1,8.962486E0,0E0,1.4455118E2,1.9304218E2,1.4720459E0,0E0,0E0,4.153988E0,0E0,3.1084259E1,3.9279835E1,2.6236488E1,6.693985E1,0E0,6.1020557E1,2.9496212E0,0E0,0E0,0E0,1.8015541E1,7.19577E1,0E0,0E0,0E0,2.412941E0,0E0,0E0,0E0,0E0,0E0,0E0,0E0,0E0,0E0,0E0,0E0,0E0,0E0,0E0,0E0,0E0,0E0,0E0],"parents":[2147483647,0,0,1,1,2,2,3,3,4,4,5,5,6,6,7,7,8,8,9,9,10,10,11,11,14,14,15,15,16,16,17,17,18,18,20,20,21,21,22,22,25,25,27,27,28,28,29,29,30,30,32,32,33,33,37,37,38,38,42,42],"right_children":[2,4,6,8,10,12,14,16,18,20,22,24,-1,-1,26,28,30,32,34,-1,36,38,40,-1,-1,42,-1,44,46,48,50,-1,52,54,-1,-1,-1,56,58,-1,-1,-1,60,-1,-1,-1,-1,-1,-1,-1,-1,-1,-1,-1,-1,-1,-1,-1,-1,-1,-1],"split_conditions":[3.3E1,2.2E1,9.4736844E-1,4E1,6.5625E-1,3.4E1,4.1E1,3E1,8.666667E-1,5.3846157E-1,4.1E1,6.4E-1,-2.0095967E-1,8.2196936E-2,5.3E1,9.423077E-1,2.5E-1,1.2E1,9.583333E-1,-2.2478418E-1,2.7E1,3.3E1,5.1E1,-1.2040939E-1,3.991604E-2,4.9E1,1.3783227E-1,9E0,9E0,3.1E1,1E0,-2.4532354E-1,4.5E1,1E0,1.3679664E-1,1.0951599E-1,-2.1092117E-1,2.4E1,6.944444E-1,1.20545916E-1,2.4567032E-2,-1.6396149E-1,1E0,3.1116372E-2,8.007037E-3,-7.5561255E-2,2.9075926E-2,5.038147E-2,-1.9644871E-1,-4.9082756E-2,1.3605502E-1,6.1444856E-2,-1.2932777E-1,-2.4412919E-2,5.1142693E-2,-2.1295866E-3,4.792271E-2,8.877411E-2,-1.9941227E-1,-8.164396E-2,2.6462555E-3],"split_indices":[1,1,4,0,4,0,0,0,4,4,0,4,0,0,0,4,4,1,4,0,0,0,0,0,0,0,0,1,0,0,3,0,0,3,0,0,0,1,4,0,0,0,4,0,0,0,0,0,0,0,0,0,0,0,0,0,0,0,0,0,0],"split_type":[0,0,0,0,0,0,0,0,0,0,0,0,0,0,0,0,0,0,0,0,0,0,0,0,0,0,0,0,0,0,0,0,0,0,0,0,0,0,0,0,0,0,0,0,0,0,0,0,0,0,0,0,0,0,0,0,0,0,0,0,0],"sum_hessian":[9.49E2,8.84E2,6.5E1,7.11E2,1.73E2,5.1E1,1.4E1,6.7E2,4.1E1,3.3E1,1.4E2,3E0,4.8E1,5E0,9E0,6.19E2,5.1E1,3.1E1,1E1,1.6E1,1.7E1,1.17E2,2.3E1,2E0,1E0,8E0,1E0,5.83E2,3.6E1,4E0,4.7E1,1.1E1,2E1,6E0,4E0,4E0,1.3E1,1.03E2,1.4E1,2.2E1,1E0,4E0,4E0,2.94E2,2.89E2,2.2E1,1.4E1,1E0,3E0,5E0,4.2E1,5E0,1.5E1,1E0,5E0,2.3E1,8E1,2E0,1.2E1,3E0,1E0],"tree_param":{"num_deleted":"0","num_feature":"6","num_nodes":"61","size_leaf_vector":"1"}},{"base_weights":[4.568182E-2,8.3514327E-1,-2.5269518E0,1.1035131E0,-1.6936994E-1,-2.6820593E0,1.6832131E0,-1.0527986E-1,1.1662745E0,1.9346204E0,-5.4656696E-1,-2.0758557E0,-4.344832E0,1.9729958E0,-1.5876198E-2,2.033326E0,9.295048E-1,1.2427834E0,1.7680447E-1,-5.0879493E0,2.7714234E-3,-3.6617062E0,-1.1227301E0,-4.3868794E0,-4.660053E-2,2.5800706E-3,1.1200545E-1,4.1846302E-1,2.4651542E0,-8.556421E-1,1.4266261E0,1.728482E0,-9.618848E-2,-3.1300876E-1,8.43839E-2,3.909121E-1,-3.3712797E0,-1.8475531E-1,-3.9772987E-2,2.565468E-1,-1.5450363E0,-2.4792178E-1,-3.7863073E0,8.4563516E-2,-1.8207845E-1,6.1356958E-2,1.31802E-1,-1.990483E-3,-2.4902263E-1,1.1892644E-1,5.6394752E-2,9.1776095E-2,3.0856071E-2,9.746867E-2,-8.5167475E-3,-2.8029887E-2,-1.9156747E-1,-9.597309E-2,1.8785858E-1,-1.9374381E-1,-2.3802567E-2],"categories":[],"categories_nodes":[],"categories_segments":[],"categories_sizes":[],"default_left":[0,0,0,0,0,0,0,0,0,0,0,0,0,0,0,0,0,0,0,0,0,0,0,0,0,0,0,0,0,0,0,0,0,0,0,0,0,0,0,0,0,0,0,0,0,0,0,0,0,0,0,0,0,0,0,0,0,0,0,0,0],"id":22,"left_children":[1,3,5,7,9,11,13,-1,15,17,19,21,23,25,-1,27,29,31,-1,33,35,37,39,41,-1,-1,-1,43,45,47,49,51,-1,-1,-1,53,55,-1,-1,-1,57,-1,59,-1,-1,-1,-1,-1,-1,-1,-1,-1,-1,-1,-1,-1,-1,-1,-1,-1,-1],"loss_changes":[2.0412292E3,2.0749475E2,1.5862927E2,1.2471057E2,1.3041728E2,2.2079993E2,5.8444843E0,0E0,1.20463745E2,2.3304298E1,3.4678513E2,2.5133496E2,4.5213623E0,3.9902477E0,0E0,8.753107E1,4.1831488E2,3.254702E1,0E0,1.2970364E2,1.6501869E2,3.0917358E0,2.905104E2,1.4781494E0,0E0,0E0,0E0,1.5085274E2,1.7921143E1,3.464126E2,1.0196283E2,8.895874E-1,0E0,0E0,0E0,9.917109E1,1.4662582E1,0E0,0E0,0E0,2.0772519E2,0E0,7.830475E0,0E0,0E0,0E0,0E0,0E0,0E0,0E0,0E0,0E0,0E0,0E0,0E0,0E0,0E0,0E0,0E0,0E0,0E0],"parents":[2147483647,0,0,1,1,2,2,3,3,4,4,5,5,6,6,8,8,9,9,10,10,11,11,12,12,13,13,15,15,16,16,17,17,19,19,20,20,21,21,22,22,23,23,27,27,28,28,29,29,30,30,31,31,35,35,36,36,40,40,42,42],"right_children":[2,4,6,8,10,12,14,-1,16,18,20,22,24,26,-1,28,30,32,-1,34,36,38,40,42,-1,-1,-1,44,46,48,50,52,-1,-1,-1,54,56,-1,-1,-1,58,-1,60,-1,-1,-1,-1,-1,-1,-1,-1,-1,-1,-1,-1,-1,-1,-1,-1,-1,-1],"split_conditions":[-8.4208144E-4,2.3E1,5.2E1,-5.443E-1,-7.947653E-2,3.6E1,5.3E1,-1.0527986E-1,-9.3828574E-2,-8.4910154E-2,-6.985072E-2,1.445E-2,5.1E1,4.5E-3,-1.5876198E-2,-1.9082858E-1,-6.985072E-2,-8.7657146E-2,1.7680447E-1,3.1E1,3.6E1,3.5E1,1.9904412E-2,1.7E1,-4.660053E-2,2.5800706E-3,1.1200545E-1,-2.028E-1,4E0,-7.738029E-2,-5.632649E-2,4.7E1,-9.618848E-2,-3.1300876E-1,8.43839E-2,-5.632649E-2,-4.0699307E-2,-1.8475531E-1,-3.9772987E-2,2.565468E-1,2.3539285E-1,-2.4792178E-1,7.1221817E-1,8.4563516E-2,-1.8207845E-1,6.1356958E-2,1.31802E-1,-1.990483E-3,-2.4902263E-1,1.1892644E-1,5.6394752E-2,9.1776095E-2,3.0856071E-2,9.746867E-2,-8.5167475E-3,-2.8029887E-2,-1.9156747E-1,-9.597309E-2,1.8785858E-1,-1.9374381E-1,-2.3802567E-2],"split_indices":[5,1,0,5,5,0,1,0,5,5,5,5,1,5,0,5,5,5,0,0,1,0,5,1,0,0,0,5,0,5,5,0,0,0,0,5,5,0,0,0,5,0,5,0,0,0,0,0,0,0,0,0,0,0,0,0,0,0,0,0,0],"split_type":[0,0,0,0,0,0,0,0,0,0,0,0,0,0,0,0,0,0,0,0,0,0,0,0,0,0,0,0,0,0,0,0,0,0,0,0,0,0,0,0,0,0,0,0,0,0,0,0,0,0,0,0,0,0,0,0,0,0,0,0,0],"sum_hessian":[1.003E3,7.68E2,2.35E2,6.06E2,1.62E2,2.27E2,8E0,1.1E1,5.95E2,2.4E1,1.38E2,1.68E2,5.9E1,7E0,1E0,1.26E2,4.69E2,1.8E1,6E0,1.4E1,1.24E2,6.2E1,1.06E2,5.8E1,1E0,1E0,6E0,2.7E1,9.9E1,1.02E2,3.67E2,1.6E1,2E0,1.2E1,2E0,1.12E2,1.2E1,6.1E1,1E0,6E0,1E2,2.6E1,3.2E1,2.1E1,6E0,1.3E1,8.6E1,8.6E1,1.6E1,8.6E1,2.81E2,1.4E1,2E0,2.9E1,8.3E1,2E0,1E1,9.4E1,6E0,3.1E1,1E0],"tree_param":{"num_deleted":"0","num_feature":"6","num_nodes":"61","size_leaf_vector":"1"}},{"base_weights":[-4.2407312E-3,7.434686E-1,-2.1891646E0,4.4487056E-1,2.0321207E0,-1.1844273E0,-2.9570694E0,8.8532525E-1,-2.5324361E0,2.3934207E0,1.3677144E0,-3.3396516E0,-2.917503E-1,-3.2509356E0,2.7687484E-1,5.4207414E-1,2.0749376E0,-5.6767535E0,9.77426E-2,2.9789937E0,1.3881207E0,7.272958E-2,3.007093E-2,-1.7518279E-1,4.7711946E-2,1.1848973E0,-2.3678484E0,3.6546454E-2,-3.4121876E0,1.3559227E0,-1.2080015E0,7.8940797E-1,-4.13597E0,1.6286296E-1,1.7883457E0,-3.284306E-1,-1.9030374E-1,1.029894E-1,-3.3895954E-1,2.1427133E0,1.9651364E-1,-1.2200096E-2,9.7436845E-2,3.3480817E-1,3.0580804E-1,-2.6576784E-1,-7.27068E-1,-2.8830068E0,-2.1620826E-1,1.8179893E-1,1.01201855E-1,1.6924667E-1,-1.3208327E-1,7.9802684E-2,3.1947636E-3,1.02896504E-1,-2.2742808E-1,1.1446042E-1,6.308667E-2,1.17699005E-1,6.70628E-2,6.934383E-2,-7.046216E-2,8.632238E-2,-1.8720172E-1,1.6049373E-1,-1.7436182E-1,-1.7492513E-1,-4.3496195E-2,-2.3207474E-2,2.7591577E-2,-4.5435525E-2,4.157346E-2],"categories":[],"categories_nodes":[],"categories_segments":[],"categories_sizes":[],"default_left":[0,0,0,0,0,0,0,0,0,0,0,0,0,0,0,0,0,0,0,0,0,0,0,0,0,0,0,0,0,0,0,0,0,0,0,0,0,0,0,0,0,0,0,0,0,0,0,0,0,0,0,0,0,0,0,0,0,0,0,0,0,0,0,0,0,0,0,0,0,0,0,0,0],"id":23,"left_children":[1,3,5,7,9,11,13,15,17,19,21,23,25,27,29,31,33,35,37,39,41,-1,-1,-1,-1,43,45,-1,47,49,51,53,55,-1,57,-1,-1,-1,-1,59,-1,61,-1,63,-1,-1,65,67,-1,69,-1,71,-1,-1,-1,-1,-1,-1,-1,-1,-1,-1,-1,-1,-1,-1,-1,-1,-1,-1,-1,-1,-1],"loss_changes":[1.6467516E3,2.880725E2,1.9478394E2,8.0348834E2,3.0573608E1,2.164285E2,1.3870044E2,2.1651825E2,6.5389404E2,4.8845703E1,2.5870132E0,2.6582428E1,2.5112453E2,8.7891235E1,2.2467241E1,4.834359E2,3.4497314E1,3.5061157E1,6.0764935E2,3.612857E1,2.7500267E1,0E0,0E0,0E0,0E0,1.9916891E2,1.6056665E2,0E0,4.9306396E1,5.907626E0,1.2294158E1,2.3106454E2,6.302719E1,0E0,2.2960144E1,0E0,0E0,0E0,0E0,2.2609863E0,0E0,2.3454721E1,0E0,2.4486757E2,0E0,0E0,2.6112598E2,1.01036255E2,0E0,1.2122202E0,0E0,3.610955E0,0E0,0E0,0E0,0E0,0E0,0E0,0E0,0E0,0E0,0E0,0E0,0E0,0E0,0E0,0E0,0E0,0E0,0E0,0E0,0E0,0E0],"parents":[2147483647,0,0,1,1,2,2,3,3,4,4,5,5,6,6,7,7,8,8,9,9,10,10,11,11,12,12,13,13,14,14,15,15,16,16,17,17,18,18,19,19,20,20,25,25,26,26,28,28,29,29,30,30,31,31,32,32,34,34,39,39,41,41,43,43,46,46,47,47,49,49,51,51],"right_children":[2,4,6,8,10,12,14,16,18,20,22,24,26,28,30,32,34,36,38,40,42,-1,-1,-1,-1,44,46,-1,48,50,52,54,56,-1,58,-1,-1,-1,-1,60,-1,62,-1,64,-1,-1,66,68,-1,70,-1,72,-1,-1,-1,-1,-1,-1,-1,-1,-1,-1,-1,-1,-1,-1,-1,-1,-1,-1,-1,-1,-1],"split_conditions":[-4.392857E-3,-3.4169566E-2,1.1E1,-4.0699307E-2,1.7E1,1.445E-2,5E1,-5.355306E-2,-3.907537E-2,-1.9862903E-2,4.5E1,1.1E1,7.5519994E-2,-8.4208144E-4,2.4E1,-5.632649E-2,-5.217375E-2,3.3E1,-3.578901E-2,-2.7216783E-2,5E0,7.272958E-2,3.007093E-2,-1.7518279E-1,4.7711946E-2,6.596429E-2,1.1E1,3.6546454E-2,6.596429E-2,5.2E1,1.25E-2,-8.7657146E-2,1.1E1,1.6286296E-1,1.6E1,-3.284306E-1,-1.9030374E-1,1.029894E-1,-3.3895954E-1,-3.0516483E-2,1.9651364E-1,-1.92E-2,9.7436845E-2,4.5185715E-2,3.0580804E-1,-2.6576784E-1,5.688211E-1,1.9983625E-2,-2.1620826E-1,1.9E1,1.01201855E-1,5.2E1,-1.3208327E-1,7.9802684E-2,3.1947636E-3,1.02896504E-1,-2.2742808E-1,1.1446042E-1,6.308667E-2,1.17699005E-1,6.70628E-2,6.934383E-2,-7.046216E-2,8.632238E-2,-1.8720172E-1,1.6049373E-1,-1.7436182E-1,-1.7492513E-1,-4.3496195E-2,-2.3207474E-2,2.7591577E-2,-4.5435525E-2,4.157346E-2],"split_indices":[5,5,1,5,0,5,0,5,5,5,0,0,5,5,1,5,5,0,5,5,0,0,0,0,0,5,0,0,5,0,5,5,0,0,1,0,0,0,0,5,0,5,0,5,0,0,5,5,0,1,0,0,0,0,0,0,0,0,0,0,0,0,0,0,0,0,0,0,0,0,0,0,0],"split_type":[0,0,0,0,0,0,0,0,0,0,0,0,0,0,0,0,0,0,0,0,0,0,0,0,0,0,0,0,0,0,0,0,0,0,0,0,0,0,0,0,0,0,0,0,0,0,0,0,0,0,0,0,0,0,0,0,0,0,0,0,0,0,0,0,0,0,0,0,0,0,0,0,0],"sum_hessian":[1.006E3,7.5E2,2.56E2,6.1E2,1.4E2,1.12E2,1.44E2,5.32E2,7.8E1,8.9E1,5.1E1,3.2E1,8E1,1.32E2,1.2E1,4.14E2,1.18E2,3.5E1,4.3E1,5.5E1,3.4E1,4.5E1,6E0,3.1E1,1E0,4.7E1,3.3E1,5E0,1.27E2,7E0,5E0,3.94E2,2E1,2.1E1,9.7E1,2.2E1,1.3E1,3.4E1,9E0,3.1E1,2.4E1,1E1,2.4E1,4.1E1,6E0,1.1E1,2.2E1,8.3E1,4.4E1,3E0,4E0,3E0,2E0,1.86E2,2.08E2,1E0,1.9E1,4.8E1,4.9E1,2.3E1,8E0,5E0,5E0,3.1E1,1E1,9E0,1.3E1,6.3E1,2E1,1E0,2E0,1E0,2E0],"tree_param":{"num_deleted":"0","num_feature":"6","num_nodes":"73","size_leaf_vector":"1"}},{"base_weights":[5.9431534E-2,8.2498044E-1,-2.0386403E0,9.15295E-1,-1.783358E0,-1.5312557E0,-3.0014143E0,7.021299E-1,1.8723139E0,8.860866E-2,-3.066989E0,-2.410265E0,1.1413829E0,-3.9432766E0,-1.8759631E0,1.0363877E0,-1.8644587E0,2.0486002E0,8.531952E-1,-1.0990893E0,-1.869664E-1,-9.955023E-1,-2.7241585E0,2.6020166E-1,-1.7151202E0,-4.2304516E0,1.6787745E0,2.9022813E0,-3.2670686E0,4.2192674E-1,1.6873423E0,-3.1273633E-1,5.2718353E-1,2.4744928E0,1.376976E0,-2.2383717E-1,8.470593E-2,-1.2095385E-1,5.136287E-2,-2.1778344E-1,1.9557474E0,-3.1986818E0,-1.4312273E0,-1.6538624E-1,2.8176817E-1,-2.7250007E-1,-3.7262948E0,-1.2177276E-2,1.3808537E-1,1.5331268E-1,1.7851797E-1,-3.8979523E0,1.1406632E-1,6.8706945E-2,-1.3637027E-1,1.040007E-1,4.430076E-2,1.0243348E-1,-3.192701E-1,9.153701E-2,1.4532267E-1,8.968109E-2,5.3182222E-2,2.2493497E-1,4.2662118E-2,-1.674528E-1,1.7265892E-2,2.4185257E-1,-1.5999204E-1,-1.9865103E-1,-1.0859086E-1,2.9087067E-4,1.1207581E-2,-2.0089714E-1,-7.393608E-2],"categories":[],"categories_nodes":[],"categories_segments":[],"categories_sizes":[],"default_left":[0,0,0,0,0,0,0,0,0,0,0,0,0,0,0,0,0,0,0,0,0,0,0,0,0,0,0,0,0,0,0,0,0,0,0,0,0,0,0,0,0,0,0,0,0,0,0,0,0,0,0,0,0,0,0,0,0,0,0,0,0,0,0,0,0,0,0,0,0,0,0,0,0,0,0],"id":24,"left_children":[1,3,5,7,9,11,13,15,17,-1,19,21,23,25,27,29,31,33,35,37,-1,39,41,-1,43,45,47,49,51,53,55,-1,57,59,61,-1,-1,-1,-1,-1,63,65,67,-1,-1,-1,69,-1,-1,71,-1,73,-1,-1,-1,-1,-1,-1,-1,-1,-1,-1,-1,-1,-1,-1,-1,-1,